brand,fused_dim_0,fused_dim_1,fused_dim_2,fused_dim_3,fused_dim_4,fused_dim_5,fused_dim_6,fused_dim_7,fused_dim_8,fused_dim_9,fused_dim_10,fused_dim_11,fused_dim_12,fused_dim_13,fused_dim_14,fused_dim_15,fused_dim_16,fused_dim_17,fused_dim_18,fused_dim_19,fused_dim_20,fused_dim_21,fused_dim_22,fused_dim_23,fused_dim_24,fused_dim_25,fused_dim_26,fused_dim_27,fused_dim_28,fused_dim_29,fused_dim_30,fused_dim_31,fused_dim_32,fused_dim_33,fused_dim_34,fused_dim_35,fused_dim_36,fused_dim_37,fused_dim_38,fused_dim_39,fused_dim_40,fused_dim_41,fused_dim_42,fused_dim_43,fused_dim_44,fused_dim_45,fused_dim_46,fused_dim_47,fused_dim_48,fused_dim_49,fused_dim_50,fused_dim_51,fused_dim_52,fused_dim_53,fused_dim_54,fused_dim_55,fused_dim_56,fused_dim_57,fused_dim_58,fused_dim_59,fused_dim_60,fused_dim_61,fused_dim_62,fused_dim_63
tokopedia,0.021140706,-0.024660988,0.058254138,0.045379207,0.14750996,0.00034628692,-0.12867871,0.052043177,0.014339764,-0.10722302,0.04049518,-0.060513265,0.030058447,-0.05304353,0.056020666,0.08107769,0.049474202,-0.022732735,-0.07124139,-0.088091455,-0.083416626,-0.04033259,-0.20821884,0.124689,-0.20068818,0.032574363,-0.06762608,0.07584545,0.1119165,0.038604047,0.099031724,0.08354089,0.11456138,0.071268,0.013934821,0.012184991,-0.07725326,0.025346141,-0.10562621,0.17218086,0.13571751,0.058708876,0.014072638,-0.03279271,0.12102187,-0.0649143,0.14531499,-0.094421424,-0.10002015,-0.1281887,0.16692795,-0.020837761,0.18015607,0.029430624,0.24744391,-0.054483987,0.17330104,-0.12385395,0.05127555,-0.09958068,0.0875085,-0.068175085,-0.014303424,-0.08163696
shopee,0.00777621,0.057213426,-0.24148196,-0.047500163,0.11881252,-0.113451496,-0.0056543075,0.03193994,0.0074959416,-0.22320077,-0.091710694,-0.039097734,-0.3642285,0.04914248,0.031146817,-0.05990111,0.013174586,-0.026263166,0.033727787,-0.0010310534,-0.069543876,0.21144013,-0.035917256,-0.0443908,0.1590425,-0.21696913,0.15572125,0.1917117,-0.11473479,-0.07752213,-0.065137684,0.054616466,-0.16067685,0.031753592,-0.19608359,-0.010661183,-0.10959544,-0.0748115,-0.07144973,-0.17619005,0.08249231,0.0772125,-0.09190908,0.03901791,0.016311629,0.10370439,-0.048988953,-0.036064673,0.0031887786,0.25270462,-0.11008619,-0.101467274,-0.05867765,0.024846464,0.038297623,0.020943262,0.043646652,-0.19041765,0.125431,0.01996312,0.18752623,-0.21620834,-0.04663065,0.008543558
bukalapak,-0.012173731,-0.025833819,0.07953045,0.0058641625,0.15315086,0.010088429,-0.07365564,-0.009857493,0.060570866,-0.12982985,-0.0085593145,-0.05417292,0.11115253,-0.022419147,-0.0142617095,0.10402511,0.08223434,-0.030732434,-0.06553578,-0.09848385,-0.087822884,0.008002277,-0.1625126,0.097032174,-0.17547673,0.092041746,-0.060837492,0.03506785,0.09215165,0.036345206,0.13980314,-0.014654113,0.15214422,-0.046940383,0.007448588,-0.07333889,0.016924124,0.06695199,-0.08663205,0.10610616,0.11575973,0.06598606,0.027588945,-0.05439596,0.10024106,-0.07286234,0.09579302,-0.07658549,-0.114587605,-0.19254807,0.16270632,-0.041772813,0.17581841,0.024610981,0.2289517,-0.06633076,0.10806309,-0.055020794,-0.026274584,-0.07870154,0.0018899109,-0.013553708,-0.039418846,-0.043853067
blibli,-0.017837418,-0.017144375,0.05061295,-0.0002574702,0.14244358,0.0037017928,-0.057998642,-0.031478964,0.061246976,-0.14118236,-0.024046972,-0.047274902,0.07370918,-0.015210056,-0.025462136,0.09726501,0.07782184,-0.03634072,-0.052855626,-0.08489003,-0.08562431,0.029743679,-0.13545007,0.071569316,-0.1324056,0.070085235,-0.037755966,0.040019825,0.071462065,0.016252756,0.12800112,-0.023806337,0.13151851,-0.057921328,-0.011501783,-0.073785454,0.028968366,0.07456288,-0.07574107,0.05806076,0.1007573,0.06338112,0.015763484,-0.053482894,0.07427679,-0.06362939,0.06606901,-0.059553225,-0.092916265,-0.15694857,0.1278277,-0.045846038,0.14371562,0.032264527,0.19394371,-0.06468472,0.07542104,-0.054011326,-0.023162939,-0.06956196,0.002364547,-0.01993413,-0.04892121,-0.030774247
lazada,-0.037674554,-0.03355746,0.072937384,0.032945327,0.16794214,0.023165166,-0.09063144,-0.04894241,0.050571024,-0.13314858,2.8918184e-06,-0.049737133,0.073217675,-0.016860064,-0.016607888,0.11050403,0.06428003,-0.060492918,-0.059561938,-0.08712439,-0.101314336,0.0062172324,-0.19311202,0.08945161,-0.20684277,0.07238257,-0.06825798,0.035961557,0.116377756,0.027904019,0.13329765,-0.004772271,0.16496691,-0.0451204,0.004262818,-0.038961716,0.006860989,0.09355488,-0.08642602,0.10831024,0.10437006,0.048334625,0.03375932,-0.05911101,0.09231709,-0.09658887,0.085311666,-0.064022936,-0.10006251,-0.19902223,0.19531779,-0.038715772,0.1935119,0.024438927,0.21975845,-0.09303116,0.1338039,-0.06272754,-0.012390821,-0.111831516,0.027893864,-0.0062055695,-0.030301573,-0.050086167
jd.id,-0.013383164,-0.0068841856,0.019333296,-0.015032932,0.13277176,-0.010531889,-0.039770555,-0.0292818,0.062285166,-0.15159227,-0.03964644,-0.044117592,0.03907364,-0.007714496,-0.028626513,0.08200447,0.07718806,-0.029950285,-0.04243343,-0.077512324,-0.08105479,0.055859704,-0.10816501,0.05420036,-0.083729714,0.048322633,-0.01116854,0.051356137,0.042294078,0.0033305972,0.11324541,-0.028573088,0.10024805,-0.063867435,-0.03207426,-0.08200134,0.03127543,0.062258735,-0.06902163,0.01743811,0.095481455,0.068460315,0.0022413007,-0.045125328,0.059238106,-0.041149087,0.045720182,-0.053619765,-0.08174801,-0.11424592,0.0887679,-0.053916752,0.11099328,0.034385987,0.16913456,-0.051406004,0.0505492,-0.05938281,-0.017695772,-0.050624363,0.0058335722,-0.035876043,-0.056453373,-0.017937057
sociolla,-0.023296218,-0.02919874,0.08117678,0.025683675,0.14937775,0.02227287,-0.085493825,-0.040683646,0.05553872,-0.1257423,-0.0014626157,-0.049415886,0.09930013,-0.029235492,-0.017878886,0.11591531,0.072432674,-0.048089676,-0.06216921,-0.08843145,-0.0900522,-0.008224748,-0.16512288,0.087777674,-0.1866641,0.08529398,-0.069116436,0.030403037,0.10560173,0.025972797,0.137548,-0.0087296385,0.16518733,-0.039273083,0.011975644,-0.051262997,0.020796452,0.092876785,-0.07958525,0.10496743,0.10127159,0.052577715,0.029458035,-0.06334539,0.085568726,-0.09558945,0.08685762,-0.06025766,-0.09567923,-0.19503434,0.16661513,-0.03168366,0.17619954,0.034828007,0.21273133,-0.08154093,0.10173352,-0.05460245,-0.020437669,-0.09679441,0.0055087185,-0.0054925606,-0.03788828,-0.048402898
zalora,-0.035093013,-0.025361236,0.038201787,0.030030813,0.15680414,0.01297484,-0.08295688,-0.054482624,0.045790277,-0.13939035,-0.0083083715,-0.045871973,0.024608638,-0.015162526,-0.014708336,0.098331705,0.05688151,-0.061420448,-0.047162004,-0.07479656,-0.09729726,0.021249704,-0.17058875,0.07007575,-0.16400737,0.04090653,-0.045713782,0.050271165,0.09234777,0.011033116,0.11101945,0.0018615137,0.13465208,-0.03783802,-0.014737798,-0.030376147,0.001216388,0.087960154,-0.076534554,0.07303408,0.09445919,0.046588566,0.020089231,-0.051308356,0.07314866,-0.08401504,0.06517845,-0.052707,-0.07883765,-0.14983366,0.15641361,-0.041513093,0.16034369,0.0315649,0.1874368,-0.0840371,0.1120321,-0.07584903,0.0031033608,-0.10248391,0.041633278,-0.02476361,-0.033551853,-0.042178392
ralali,-0.09837499,0.04138165,-0.28090507,-0.10847953,0.21563934,-0.12521756,0.08973868,-0.056272767,0.04995913,-0.3031748,-0.17266965,-0.028213788,-0.3932197,0.17315224,-0.05919287,-0.090142295,0.022809222,-0.05614299,0.048966028,-0.024005465,-0.1347371,0.4073604,-0.10628432,-0.06230946,0.13439324,-0.19229132,0.21170461,0.17087382,-0.109047994,-0.060260057,-0.013173265,-0.07250203,-0.14976701,-0.201498,-0.25861514,-0.09886083,-0.042453274,-0.050934974,-0.089131266,-0.2820286,0.09126745,0.08979455,-0.06405175,0.05914733,0.017698433,0.15964246,-0.1228348,-0.056729734,-0.067131564,0.15357167,0.03164338,-0.19459876,0.007286106,-0.0590266,0.06368059,-0.031916108,0.12005109,-0.13634625,0.053800076,0.0013735541,0.17968377,-0.15062921,-0.05941419,0.07795678
orami,-0.076378554,0.03894995,-0.26559278,-0.063380286,0.17222244,-0.10383849,0.048871737,-0.07440078,0.03615852,-0.26631594,-0.13927695,-0.024229605,-0.3885752,0.11605693,-0.03650719,-0.059411794,0.010150695,-0.064698644,0.049996782,-0.0074435305,-0.114517905,0.31842193,-0.074596316,-0.06948418,0.13875803,-0.20057043,0.18186161,0.17126386,-0.100044794,-0.0807651,-0.032230712,-0.027407378,-0.13207096,-0.12462923,-0.22790678,-0.049094543,-0.04912319,-0.019343004,-0.061016485,-0.25143743,0.06383786,0.06897368,-0.07027404,0.04195566,-0.010456032,0.107675806,-0.11405087,-0.02518406,-0.014787631,0.18018237,-0.020182775,-0.14922816,-0.022121247,-0.011144514,0.022719566,-0.029283501,0.07000915,-0.1539216,0.07995498,-0.014735859,0.17444126,-0.15758377,-0.05624836,0.05518315
indomie,0.006729543,-0.023125114,0.07193438,0.035457708,0.14914694,0.008696605,-0.11139265,0.019033449,0.028460372,-0.11135705,0.028608132,-0.05937216,0.066625126,-0.0460676,0.032705024,0.09009334,0.05922126,-0.032276947,-0.06926683,-0.08966857,-0.089455344,-0.03305466,-0.19721676,0.114367634,-0.19746749,0.056022096,-0.07297605,0.051803596,0.112470016,0.039479874,0.12259969,0.04599542,0.13188478,0.03075128,0.0174792,-0.009199999,-0.037906636,0.054560218,-0.097844705,0.1470933,0.12592348,0.055751313,0.024809241,-0.044089027,0.108983606,-0.06905005,0.13148022,-0.088962145,-0.09755954,-0.1566391,0.17204677,-0.025332157,0.18099466,0.027225005,0.23731852,-0.06326026,0.14919432,-0.099377826,0.021906111,-0.099043176,0.059280157,-0.03828976,-0.026265971,-0.07007758
mie sedaap,-0.0764434,-0.07315317,0.0649925,0.039968416,0.16667128,0.042394355,-0.10065141,-0.061771207,0.0332508,-0.12191024,-0.010033162,-0.055595253,0.06372776,-0.012998801,-0.04011365,0.120989576,0.0663766,-0.05481544,-0.068254694,-0.08625525,-0.09758514,0.028167041,-0.19562238,0.07443862,-0.21469992,0.07557545,-0.0749578,0.027969886,0.085505515,0.023151137,0.110544026,0.00048197163,0.16366881,-0.027031481,0.00052973453,-0.013815912,-0.015078843,0.095555946,-0.0555629,0.11748894,0.103904754,0.028922215,0.006646244,-0.07121211,0.08809677,-0.15185723,0.06899615,-0.045920968,-0.08953525,-0.21636695,0.17592037,-0.044919275,0.17512158,0.025012132,0.1865398,-0.09088948,0.14249733,-0.074938625,-0.016720045,-0.12292258,0.018319279,-0.028564882,-0.0009088527,-0.044351924
pop mie,-0.07253538,0.009144276,-0.24859568,-0.053537533,0.11555199,-0.07792717,0.035432957,-0.07173083,0.024968851,-0.22613475,-0.1416271,-0.028857045,-0.3389926,0.07155889,-0.051892363,-0.025210243,0.026748728,-0.03534057,0.037078857,-0.0032795519,-0.08045438,0.2767244,-0.007644021,-0.08984156,0.17583725,-0.17097896,0.16162054,0.15074338,-0.1495122,-0.097648,-0.052472603,-0.013020707,-0.12622392,-0.06522069,-0.20131508,-0.031922463,-0.04387077,-0.006820049,-0.0068119625,-0.23871356,0.046403833,0.04997758,-0.10963096,0.0147003755,-0.040145963,0.037086517,-0.122295454,0.010410987,0.026541788,0.17909597,-0.12088235,-0.12305981,-0.08840774,0.03090726,-0.037877634,0.0004456794,-0.010544581,-0.15430929,0.06635919,0.0016547262,0.115234464,-0.1829636,-0.04416877,0.05426786
sosro,-0.0485984,-0.05277419,0.03359635,0.011782343,0.12242877,0.022482883,-0.07082615,-0.04714743,0.039645713,-0.123492464,-0.032031298,-0.050667007,0.051713154,-0.024449788,-0.0453144,0.1095805,0.07626261,-0.028768532,-0.05728212,-0.07536839,-0.07317846,0.03785836,-0.115144834,0.046370354,-0.11641489,0.06255137,-0.04052835,0.035572566,0.029292416,-2.0465115e-05,0.09363437,-0.008109513,0.120287776,-0.020564236,-0.0150437,-0.03827487,0.007103285,0.080104634,-0.034216907,0.056451708,0.09052086,0.0400937,-0.019564759,-0.06648885,0.054164946,-0.12316856,0.0441225,-0.030294165,-0.062867835,-0.1484996,0.07415874,-0.043182567,0.10045874,0.046562113,0.13815776,-0.055317674,0.057091407,-0.07200329,-0.018560398,-0.07560873,-0.008979807,-0.051478304,-0.022153795,-0.025162071
frestea,-0.14379922,-0.010121394,-0.28284436,-0.05518836,0.21754117,-0.08650847,0.03942568,-0.09194467,0.015703222,-0.27652156,-0.15389024,-0.03349976,-0.43005037,0.15521936,-0.06288688,-0.06284896,0.0036969255,-0.074439056,0.040858924,-0.012059311,-0.137084,0.3829896,-0.1436933,-0.070635945,0.08159532,-0.20514841,0.17833848,0.16882992,-0.106533244,-0.071381584,-0.04930925,-0.026217934,-0.1310889,-0.1422533,-0.24437645,-0.01766707,-0.092362925,-0.022091039,-0.051781766,-0.2341457,0.07941349,0.048216093,-0.082884155,0.04103086,0.008133499,0.06393721,-0.12535101,-0.028615676,-0.032657377,0.13076988,0.036654226,-0.1807938,0.0063257376,-0.040946458,0.02451954,-0.04959992,0.15267417,-0.17301962,0.079654545,-0.049855493,0.20142037,-0.17475483,-0.015964128,0.06172037
aqua,-0.017213814,-0.026335195,0.043355234,0.043020524,0.1781227,0.0044773235,-0.11373913,0.004488769,0.01971946,-0.12929666,0.024916543,-0.05848316,0.0035578124,-0.021189328,0.034272514,0.074233174,0.04378386,-0.05309915,-0.060013548,-0.08367686,-0.10749063,0.0031428686,-0.23549429,0.108876616,-0.21250509,0.022518719,-0.0603998,0.066890724,0.11949748,0.03713173,0.107846454,0.051628552,0.118015185,0.019017264,-0.0053630644,0.010264365,-0.062649496,0.050729755,-0.10715717,0.1356061,0.12906738,0.049420413,0.026634272,-0.03305596,0.11378711,-0.06179932,0.11939049,-0.092433214,-0.09952628,-0.14460756,0.20571032,-0.04061556,0.19798309,0.009655879,0.23848897,-0.078684434,0.19570528,-0.11681395,0.039679848,-0.118257545,0.10183972,-0.047157362,-0.015464428,-0.06801749
le minerale,-0.06248308,-0.060781013,0.0604301,-0.002286991,0.15807974,0.024196569,-0.06337568,-0.03592693,0.050906077,-0.13539468,-0.03763836,-0.056885928,0.093616284,0.00069313135,-0.055264913,0.10868791,0.08815813,-0.028111774,-0.06950866,-0.09526123,-0.08860725,0.06266553,-0.15820566,0.06979258,-0.16654074,0.09489712,-0.05177307,0.023692578,0.05275633,0.026299514,0.12292259,-0.033337593,0.14460447,-0.061581273,-0.010544239,-0.066607565,0.012035869,0.07264231,-0.057076603,0.08133374,0.112830386,0.050340924,-0.0016453296,-0.06697273,0.088582255,-0.11520408,0.06008341,-0.055699643,-0.106828,-0.21026199,0.14229262,-0.060532056,0.15154529,0.018827997,0.19006294,-0.06827064,0.10711123,-0.054040857,-0.04336125,-0.08147423,-0.01502629,-0.030000713,-0.018751904,-0.02479578
ultra milk,-0.086497426,-0.06867978,0.053304866,0.0083357785,0.1881851,0.026573902,-0.07148564,-0.046952233,0.043351643,-0.14677873,-0.034929536,-0.05794376,0.060499426,0.020387717,-0.05459729,0.10125311,0.07718283,-0.046672318,-0.06751694,-0.09469663,-0.10641733,0.08454953,-0.20526811,0.07531961,-0.20363751,0.07988978,-0.05290341,0.029782094,0.07273452,0.03136039,0.120078474,-0.028648596,0.14825386,-0.07201548,-0.020579804,-0.049421445,-0.008879071,0.07404308,-0.0700071,0.09054287,0.119967476,0.045101583,0.006668497,-0.06151215,0.10187607,-0.11838508,0.061302807,-0.06425789,-0.117965564,-0.22418344,0.19208658,-0.071676776,0.18263146,0.0014067949,0.20646551,-0.0871284,0.16024776,-0.064213105,-0.034021486,-0.105906084,0.016763184,-0.028642818,-0.0072708614,-0.0276772
sariwangi,-0.018194836,-0.05035097,0.08374088,-0.0013923869,0.0922738,0.030111186,-0.06643029,-0.0239743,0.055747107,-0.10138331,-0.027787171,-0.053540625,0.15524712,-0.05296643,-0.049585566,0.13300303,0.101533115,-0.001172839,-0.07442227,-0.09052223,-0.0524011,-0.00779476,-0.07389754,0.060934186,-0.11145912,0.120262,-0.06394465,0.010490296,0.028107138,0.012363583,0.12403026,-0.023328908,0.14938316,-0.015483795,0.019514807,-0.07435113,0.043776445,0.083725244,-0.028198076,0.08218749,0.09296891,0.05136722,-0.01597245,-0.08345295,0.05747674,-0.13212042,0.06528731,-0.03199812,-0.07282552,-0.18485186,0.047396615,-0.02505699,0.09386888,0.06260571,0.15307924,-0.03824815,0.0062511023,-0.041700542,-0.050745673,-0.050445765,-0.07072884,-0.032297675,-0.03585998,-0.029198792
good day,-0.073675156,-0.06662688,0.035803907,0.04162146,0.1524556,0.035341572,-0.0979322,-0.06804687,0.026525496,-0.12403256,-0.014226439,-0.051918447,0.020091925,-0.01674449,-0.03678476,0.11287362,0.05820161,-0.056454755,-0.057441078,-0.07295752,-0.09212798,0.03345734,-0.17383927,0.056358133,-0.17719156,0.046741717,-0.057486407,0.04010535,0.06528145,0.0058517586,0.088725984,0.010963757,0.13797054,-0.012853701,-0.013429055,-0.00020391593,-0.021553129,0.09393411,-0.044544913,0.08872855,0.09292485,0.024985785,-0.006270456,-0.06546432,0.06800017,-0.14606822,0.053059157,-0.033565022,-0.06594632,-0.17112657,0.1368253,-0.043478347,0.14266482,0.035218164,0.15423624,-0.08300879,0.11956321,-0.08819718,-0.00048639934,-0.11688121,0.030268548,-0.04597768,-0.0032056924,-0.039160136
kopi kapal api,-0.020683648,-0.054300837,0.10338552,-0.005762185,0.10194483,0.033561323,-0.066171475,-0.017845064,0.061064035,-0.101324156,-0.026901048,-0.056482106,0.18633068,-0.049084015,-0.05297725,0.13761352,0.108371586,0.0015301817,-0.08229567,-0.09978823,-0.055632792,-0.0088340165,-0.08739607,0.072730154,-0.13495824,0.14106321,-0.07412495,0.0018193055,0.04007507,0.024242038,0.13954501,-0.033080474,0.16533479,-0.027359193,0.0280528,-0.086780846,0.049083676,0.08345568,-0.03633133,0.09927356,0.10152952,0.055385657,-0.0076097324,-0.0865222,0.07158482,-0.13386215,0.0766269,-0.041812785,-0.090476796,-0.21629953,0.0727642,-0.027393717,0.11479055,0.054677032,0.17595358,-0.042848386,0.020942625,-0.031229578,-0.063805036,-0.052497566,-0.08081424,-0.020427957,-0.035166025,-0.03120624
torabika,-0.11142118,0.005064535,-0.27308196,-0.09067224,0.18558592,-0.09903501,0.07060954,-0.06385268,0.035650656,-0.2727006,-0.17312917,-0.033531763,-0.37159523,0.14490409,-0.072558194,-0.06328213,0.029257748,-0.039785746,0.038535453,-0.020001266,-0.11568705,0.3832242,-0.07583083,-0.07771577,0.14223291,-0.17579046,0.19193459,0.15775123,-0.14331746,-0.0720911,-0.03659376,-0.054820187,-0.14206308,-0.15334523,-0.2398425,-0.07007846,-0.05346864,-0.03866198,-0.043372914,-0.2624522,0.07798758,0.06694066,-0.09530851,0.037183985,0.00046897237,0.08944472,-0.13147604,-0.027984008,-0.035044618,0.14305338,-0.02732364,-0.17855617,-0.033944223,-0.029639263,0.015478389,-0.017236628,0.08217402,-0.14634684,0.048806448,-0.0009272327,0.14729685,-0.17344418,-0.037104752,0.075156316
nescafe,-0.04078809,-0.06356807,0.09586406,0.018038187,0.12464874,0.041351624,-0.08585,-0.036548287,0.04904714,-0.10401109,-0.014622264,-0.05627564,0.14661372,-0.041186422,-0.04599639,0.13651684,0.091163605,-0.021511268,-0.07885559,-0.094660334,-0.070797294,-0.0068387073,-0.13115028,0.07623719,-0.1742324,0.119827546,-0.08171071,0.0092571415,0.06362948,0.024850728,0.12998143,-0.015583058,0.17190114,-0.020298278,0.024142707,-0.05328802,0.023994561,0.092812225,-0.042889334,0.11629528,0.101145625,0.04242059,3.4562865e-05,-0.083546914,0.07814001,-0.1486797,0.07816853,-0.04195367,-0.08838308,-0.22246543,0.11546955,-0.029114328,0.14163789,0.04632298,0.18145835,-0.06351848,0.06801176,-0.047989346,-0.044612452,-0.0841455,-0.044228002,-0.020942535,-0.020362318,-0.040429547
cimory,-0.05653997,-0.06793286,0.08036618,0.03216265,0.1391218,0.04291652,-0.09584721,-0.050285686,0.038897544,-0.109638266,-0.009918831,-0.055171628,0.1034752,-0.032825876,-0.041602455,0.13062781,0.07731384,-0.037768196,-0.07301031,-0.08756918,-0.08120179,0.0031269859,-0.15783393,0.073193364,-0.19003025,0.09588187,-0.07899134,0.018573131,0.07313105,0.020441208,0.117490314,-0.002953401,0.16691291,-0.015550151,0.01439218,-0.028458396,0.0040673143,0.096701816,-0.04608644,0.11639276,0.09957789,0.03386556,0.0014062775,-0.07831544,0.07811295,-0.15402368,0.073973164,-0.040721416,-0.08297262,-0.2140754,0.13634807,-0.03286226,0.15173511,0.040605683,0.17793846,-0.07586309,0.097622275,-0.06314175,-0.027775466,-0.1037471,-0.014155785,-0.026829958,-0.011161843,-0.043211278
greenfields,-0.045651235,-0.04543172,0.041654207,-0.03853707,0.13689728,0.0043869233,-0.028578924,-0.016024083,0.06277676,-0.14573409,-0.063718125,-0.05538202,0.09944287,0.0062074,-0.06608613,0.094432265,0.10334711,-0.0026223788,-0.064986356,-0.0953507,-0.07491323,0.0911021,-0.10613793,0.05480331,-0.09821285,0.09759991,-0.021743672,0.025750313,0.010270055,0.017861914,0.12199106,-0.056309443,0.113187954,-0.08046666,-0.025912747,-0.105732635,0.03461192,0.052143905,-0.04992094,0.03277485,0.11271697,0.06740394,-0.017561397,-0.060822025,0.07462472,-0.080188274,0.043764636,-0.055733398,-0.10634244,-0.17723869,0.083319545,-0.07053603,0.10750653,0.022236511,0.17197555,-0.041607074,0.055341356,-0.04235954,-0.05809018,-0.039416958,-0.042291094,-0.041288354,-0.037313882,-0.004388201
so nice,-0.1128034,-0.07191341,-0.027034871,0.06919314,0.18804148,0.030591726,-0.11388631,-0.10384001,0.0024824217,-0.14579508,-0.0124364495,-0.048217587,-0.11510402,0.0117122885,-0.02600833,0.08848636,0.021928888,-0.09713859,-0.035655312,-0.051172286,-0.11776072,0.07652393,-0.22705907,0.03738032,-0.190613,-0.031545896,-0.03494388,0.073509954,0.072282866,-0.011497328,0.04560286,0.03918956,0.10519302,-0.006928971,-0.053575713,0.05821967,-0.07318272,0.096302256,-0.048456267,0.06519905,0.085081354,0.005347044,-0.010144744,-0.046144426,0.062002532,-0.14534435,0.027898546,-0.025726419,-0.04475129,-0.12196659,0.17139287,-0.059883863,0.15228996,0.020223461,0.13005233,-0.10757387,0.18467909,-0.13175997,0.046574943,-0.15658616,0.11354761,-0.06998521,0.017813351,-0.040251136
tango,-0.056257565,-0.06922604,0.08732717,0.032599133,0.1400823,0.044886693,-0.09721884,-0.04904361,0.039965793,-0.10793312,-0.008231234,-0.055818178,0.11378817,-0.033983093,-0.041905895,0.13326743,0.0789454,-0.03703759,-0.075458124,-0.089865044,-0.08131073,-0.0008303677,-0.16051282,0.07670201,-0.19705743,0.10232207,-0.08336665,0.015648955,0.07720363,0.023421949,0.12180961,-0.00413813,0.172685,-0.01625792,0.018445272,-0.030413408,0.005763025,0.09783895,-0.047532894,0.12297294,0.10112192,0.03431376,0.0037695519,-0.08004043,0.08121906,-0.1565156,0.07781819,-0.04248377,-0.08653982,-0.222907,0.14206645,-0.031741545,0.15700336,0.039932873,0.18348035,-0.07706964,0.09997243,-0.060374707,-0.030883381,-0.10490121,-0.017828885,-0.023306623,-0.010902836,-0.044710413
silverqueen,-0.056285948,-0.038083702,-0.03169756,-0.013351764,0.12711741,-0.004576667,-0.03873362,-0.04830514,0.03923869,-0.15317205,-0.06294923,-0.0463211,-0.03403892,0.006257209,-0.0519319,0.07437968,0.069343634,-0.02741507,-0.036706273,-0.062746085,-0.07726628,0.107030466,-0.094577864,0.01728487,-0.048449464,0.013107898,0.010798525,0.06115205,-0.014374283,-0.019070704,0.065121815,-0.018513832,0.06193407,-0.04474679,-0.062204935,-0.04793244,-0.0011203802,0.055098176,-0.031512134,-0.016382296,0.08660227,0.047586624,-0.039147355,-0.045734417,0.037223533,-0.07825915,0.005743219,-0.026719708,-0.052324757,-0.079073675,0.035864733,-0.06903072,0.060886662,0.03610834,0.10487692,-0.042083405,0.046934873,-0.086927176,-0.0048502726,-0.053283826,0.01764021,-0.079932645,-0.028983783,-0.0016662937
chitato,-0.03587382,-0.059487697,0.07273899,0.032371555,0.10438206,0.040747393,-0.0940614,-0.048135586,0.038036533,-0.097561665,-0.009336098,-0.051759373,0.10489489,-0.05583029,-0.037904,0.13543302,0.07896524,-0.027169988,-0.06865801,-0.07868336,-0.06328189,-0.020957839,-0.10994101,0.059506506,-0.1445671,0.090330996,-0.07351135,0.020145867,0.050694004,0.005678241,0.1058476,0.0060610157,0.15373923,0.009410043,0.018214177,-0.026070878,0.014500937,0.09930676,-0.028040309,0.09938987,0.08551641,0.032898188,-0.011945877,-0.08196075,0.054292887,-0.15614408,0.06594744,-0.024212904,-0.056442507,-0.17754242,0.074664764,-0.018468034,0.109577104,0.064072266,0.1446644,-0.0580971,0.042358536,-0.065079585,-0.02229501,-0.085945606,-0.030861238,-0.037666388,-0.020015256,-0.041692495
qtela,-0.26383334,-0.13835846,-0.25094134,0.6055343,0.1982418,0.18461818,-0.54258907,-0.4792276,-0.31939727,-0.04534082,0.3195108,0.08233677,-1.033205,-0.10450278,0.055471726,0.15697634,-0.38473877,-0.4837494,0.20729087,0.27457228,-0.17379758,-0.18167287,-0.5780318,-0.099429786,-0.42918903,-0.56412494,-0.08878404,0.26708242,0.29376376,-0.2828311,-0.28151676,0.6182028,0.13295697,0.51696527,-0.112053104,0.8743475,-0.4857971,0.31808174,-0.04729298,0.19672993,-0.13100149,-0.39614844,0.04981398,-0.09816945,-0.11015776,-0.53912926,-0.08513053,0.23568091,0.32331344,0.31098625,0.2523139,0.057099346,0.15313132,0.08808255,-0.14564621,-0.2936074,0.50591576,-0.50468916,0.55185586,-0.616186,0.7882062,-0.30497962,0.20922625,-0.25793514
wings group,-0.07926209,0.0001067773,-0.23895341,-0.020750603,0.082644194,-0.0478928,0.020661803,-0.13175166,0.028664993,-0.19608136,-0.1300843,-0.019898556,-0.32738495,0.040713273,-0.06342496,0.006385952,0.01961174,-0.054710113,0.053057544,0.012636908,-0.06870459,0.22514397,0.027853526,-0.115144014,0.19241321,-0.16611294,0.13925323,0.13752756,-0.15599546,-0.1195526,-0.06686659,-0.0055075344,-0.09846656,-0.056614395,-0.17973149,-0.011767273,-0.01587589,0.042095803,0.036966994,-0.24379957,0.005139336,0.023423593,-0.10292685,-0.0015610696,-0.08081687,-0.022664381,-0.14614305,0.051084477,0.06884982,0.18401596,-0.1674951,-0.09916501,-0.12222866,0.06826087,-0.1028052,-0.006225259,-0.0685416,-0.149921,0.06378673,-0.01759994,0.08890906,-0.17157742,-0.041606016,0.054265603
so klin,0.23557045,0.028908497,-0.07459348,-0.011077624,-0.37454063,-0.027484003,-0.018012714,-0.12456157,0.0707086,0.049974244,0.010242164,0.034509115,0.06431407,-0.37165016,0.00524499,0.17429572,0.05562596,0.15684271,0.047675945,0.081092924,0.21367782,-0.34223062,0.61453843,-0.20647934,0.6041031,-0.0030285586,0.07709986,0.08965178,-0.34610754,-0.2773146,-0.081940055,0.07489124,-0.030660855,0.3145252,0.07079598,-0.0472153,0.20077598,0.116964884,0.31908524,-0.21364832,-0.15980262,0.0031565512,-0.18831663,-0.10495179,-0.299174,-0.18300094,-0.113925084,0.24516122,0.33772734,0.39226857,-0.8495677,0.19474211,-0.58131015,0.4461267,-0.43513232,0.16391298,-0.7762179,-0.11919819,0.047174767,0.1564917,-0.28651872,-0.16527016,-0.13595551,0.0654813
sunlight,-0.07357319,-0.051973857,0.0457633,-0.047825254,0.15159512,0.016968455,-0.009326617,-0.057485797,0.085006535,-0.15269512,-0.08504278,-0.05535488,0.11947329,0.030141432,-0.09837291,0.10222677,0.112488925,-0.016417544,-0.052332446,-0.09669876,-0.08284427,0.118828036,-0.10369937,0.038350284,-0.09736491,0.1162526,-0.023827724,0.009994898,-0.0001938282,0.017718628,0.12675077,-0.09702243,0.1315485,-0.14247179,-0.030680224,-0.13861535,0.06838435,0.07201696,-0.036797956,0.0072536636,0.09726269,0.0631135,-0.0023992558,-0.06451313,0.071389034,-0.097547784,0.01605003,-0.047224496,-0.115481384,-0.20823535,0.09220132,-0.086946905,0.10926619,0.017692836,0.15345411,-0.05296864,0.047399186,-0.01573169,-0.092191726,-0.04341303,-0.068879634,-0.018856954,-0.036684293,0.012292391
daia,-0.12635909,0.0026027304,-0.272506,-0.105994776,0.18316308,-0.09065859,0.10123593,-0.09646274,0.058355544,-0.27505183,-0.19799832,-0.030088546,-0.34595007,0.1611953,-0.10482719,-0.058605254,0.04086139,-0.038699664,0.05055727,-0.021917332,-0.11669105,0.40871862,-0.051235046,-0.095474795,0.16950072,-0.152706,0.19840929,0.14043787,-0.16757697,-0.07635236,-0.030463781,-0.0929576,-0.13348016,-0.21495116,-0.2407745,-0.10866835,-0.00997339,-0.022878299,-0.02177094,-0.30142,0.060149018,0.0652075,-0.0876622,0.034816362,-0.017167618,0.083164155,-0.16182286,-0.017717509,-0.04026118,0.12398141,-0.04590755,-0.19292176,-0.052467465,-0.02838327,-0.012586668,-0.016836187,0.047170572,-0.11959331,0.014963868,0.008708264,0.10699108,-0.15666768,-0.045065526,0.09783316
rinso,-0.06980145,-0.07144784,0.09459982,0.022004131,0.13337812,0.057187326,-0.07607144,-0.08710919,0.06341472,-0.10552984,-0.027765457,-0.053886753,0.14710471,-0.026367944,-0.07254918,0.14635399,0.09159202,-0.041614622,-0.06231589,-0.08938924,-0.07821809,0.009537606,-0.12919095,0.055191994,-0.17278446,0.12544835,-0.084789336,-0.0026060734,0.055275664,0.01645874,0.12531227,-0.042270094,0.18866065,-0.06492619,0.019904021,-0.0660476,0.0496815,0.11932202,-0.024638157,0.09237482,0.078872174,0.030686311,0.012516851,-0.08678036,0.065822765,-0.17542507,0.048685,-0.025790088,-0.083261624,-0.23995575,0.11726965,-0.03775329,0.1365814,0.048135832,0.15019655,-0.07737434,0.058346637,-0.03106473,-0.06622179,-0.0976436,-0.060272917,-0.0035161048,-0.016439017,-0.026962453
mama lemon,-0.24478433,-0.11161789,-0.24120778,0.6007731,0.15242296,0.20545617,-0.5452105,-0.5230347,-0.27856886,-0.04243711,0.28978398,0.0959681,-0.98083425,-0.1304449,0.023963805,0.1786043,-0.37517625,-0.49642056,0.21254034,0.28412813,-0.14284009,-0.22156045,-0.474988,-0.14434317,-0.3645056,-0.53148735,-0.10787833,0.26868838,0.2787487,-0.28221127,-0.28446266,0.60170054,0.16176754,0.53017735,-0.10224639,0.8199743,-0.4320043,0.3405461,-0.023016676,0.15459616,-0.15653539,-0.39269716,0.06508556,-0.13977604,-0.14213628,-0.5915907,-0.13043453,0.2772852,0.35191143,0.33362445,0.14045647,0.084375575,0.09689494,0.14248833,-0.19585371,-0.299042,0.38668028,-0.47218812,0.5377202,-0.58291435,0.72590685,-0.30131957,0.20538072,-0.24853653
baygon,0.031647734,0.03386142,-0.18586862,-0.039926954,-0.076425985,-0.041253537,0.028075218,-0.09302649,0.048913784,-0.12622866,-0.12116103,-0.014646637,-0.17357343,-0.07960047,-0.056476124,0.062204167,0.06385481,0.013757505,0.041426122,0.020404564,0.021944392,0.075918466,0.24485847,-0.144324,0.35032222,-0.100679964,0.11974808,0.106132194,-0.23267141,-0.15692362,-0.06174072,-0.0011170851,-0.096315235,0.041349065,-0.117983535,-0.055153392,0.070743024,0.05877491,0.1043171,-0.26059836,-0.036625028,0.035733223,-0.14383902,-0.038715847,-0.15526214,-0.050519302,-0.14150397,0.10664693,0.1484866,0.25226346,-0.41553497,-0.01835581,-0.27227205,0.17150298,-0.1931258,0.07354284,-0.32783312,-0.11072738,0.034928836,0.07608737,-0.05693362,-0.1822834,-0.092320174,0.052532762
hit,-0.075794466,-0.0540632,0.037268616,-0.030385114,0.14722368,0.021762677,-0.023471875,-0.07003303,0.07564548,-0.1465675,-0.07488868,-0.05320939,0.093464166,0.02083192,-0.0910156,0.105254605,0.101284206,-0.026746798,-0.047555186,-0.088111624,-0.08314477,0.10430394,-0.10713154,0.03302876,-0.100385234,0.09859858,-0.026803266,0.015822347,0.0040871412,0.009249954,0.11374645,-0.079257846,0.12988202,-0.12191005,-0.030495673,-0.112552255,0.056705058,0.081145674,-0.030754086,0.010988563,0.08872029,0.052730225,-0.0042631933,-0.064614266,0.06240303,-0.11056294,0.013546275,-0.037379555,-0.09804419,-0.19234571,0.087367095,-0.07891809,0.10412607,0.025456335,0.13827512,-0.057748564,0.048871428,-0.028552823,-0.07565284,-0.056477845,-0.052662402,-0.024787758,-0.030904688,0.00631529
top coffee,-0.11940293,-0.012542047,-0.26609936,-0.008810713,0.16749887,-0.0639577,-0.0024857195,-0.11007893,-3.4553e-05,-0.23532261,-0.117907554,-0.028381694,-0.42287982,0.09328848,-0.039538465,-0.029827962,-0.008819666,-0.082008354,0.042290114,0.0056758733,-0.11376119,0.28793758,-0.10600388,-0.07955277,0.09081666,-0.21296516,0.14784491,0.1676754,-0.099609435,-0.09388648,-0.068884835,0.020929268,-0.11324301,-0.06023646,-0.2114417,0.034831725,-0.09728058,0.011268186,-0.020998228,-0.20314221,0.050089777,0.025151405,-0.091097355,0.023163835,-0.024414346,0.009905979,-0.11674559,0.00610666,0.023833271,0.16059738,-0.022802994,-0.13229674,-0.02805917,0.008943822,-0.021318564,-0.044700198,0.09584362,-0.19055437,0.10599634,-0.065363556,0.19356084,-0.18275166,-0.013627717,0.038315095
mitu baby,-0.011419037,0.0029484779,-0.06263466,0.85675627,-0.4193739,0.21022472,-0.7724993,-0.6122954,-0.21657221,0.137305,0.40570134,0.27539408,-0.65651757,-0.7435737,0.1265609,0.28189006,-0.42759535,-0.51612854,0.2829482,0.4300921,0.2179703,-0.8848989,0.3427419,-0.26997104,0.070783906,-0.48842245,-0.30144808,0.56427735,0.43475866,-0.29755425,-0.33606777,0.9670229,0.44322944,1.3881369,-0.026353475,0.7686364,-0.42002916,0.36856505,0.09773406,0.32475424,-0.28762996,-0.19800587,0.10298446,-0.5332316,-0.27362323,-1.052862,-0.18617088,0.5387039,0.69649327,0.89761925,-0.7325932,0.55181473,-0.35625583,0.7142967,-0.42939162,-0.10815847,-0.3573981,-0.6181561,0.6849915,-0.46037668,0.53735185,-0.3392436,0.1902543,-0.3187297
wardah,-0.05321671,-0.059471406,0.03236843,0.010052866,0.1432521,0.0271823,-0.07200353,-0.04146819,0.04973254,-0.11343791,-0.030346364,-0.061980635,0.05603261,-0.014030451,-0.037584923,0.09939225,0.07855764,-0.030458327,-0.047653638,-0.086342365,-0.08250512,0.04641516,-0.13665041,0.054026075,-0.12898079,0.06388742,-0.05148325,0.040488727,0.01767467,0.017753905,0.08155118,-0.010553982,0.118472695,-0.038597178,-0.014355678,-0.04907966,-0.0049428367,0.06340635,-0.028167274,0.07613444,0.09272964,0.03770587,-0.0014097474,-0.051508844,0.07831937,-0.12584144,0.049181104,-0.04506854,-0.08018401,-0.15470836,0.09070002,-0.05701927,0.11297279,0.031034771,0.13902816,-0.04757233,0.09359155,-0.08173543,-0.024219051,-0.08176792,0.002176666,-0.052945457,-0.004291185,-0.025094595
make over,-0.03009539,-0.031546418,0.036629915,0.011760052,0.16632354,0.01242008,-0.06765999,-0.05036951,0.06705008,-0.13810182,-0.023386782,-0.050822765,0.05680059,-0.0036836155,-0.027381184,0.09972581,0.07367102,-0.051252123,-0.04450107,-0.09174741,-0.09670411,0.040858798,-0.1550496,0.072059356,-0.1517672,0.060014367,-0.047583204,0.048688784,0.066417105,0.026537523,0.11028793,-0.022537813,0.13663518,-0.07378448,-0.016923722,-0.069477275,0.016975734,0.07364256,-0.06451285,0.07287781,0.0962487,0.053357013,0.024924194,-0.049749162,0.08697806,-0.08171262,0.052294437,-0.054676294,-0.09621531,-0.16096894,0.14971757,-0.05671916,0.16168398,0.024643144,0.18415722,-0.06960577,0.10418743,-0.06735313,-0.017266916,-0.08495803,0.02075763,-0.022929512,-0.027700132,-0.034217756
emina,-0.030466504,-0.036118627,0.06129554,0.009913284,0.17307344,0.018052042,-0.06965986,-0.043842807,0.0722315,-0.13469443,-0.019978112,-0.05371882,0.09487333,-0.0039044963,-0.030048504,0.10746257,0.081135206,-0.048027575,-0.053541094,-0.1013957,-0.09843593,0.032802865,-0.1669507,0.08534433,-0.177416,0.08438739,-0.061647628,0.038001787,0.08044069,0.038803857,0.12724242,-0.030494928,0.1566154,-0.08176424,-0.0042312862,-0.08081245,0.02375955,0.0755216,-0.07155478,0.094707504,0.10401447,0.05673164,0.033697095,-0.055056937,0.10064526,-0.08747519,0.06585232,-0.06352864,-0.11280184,-0.19529772,0.1736385,-0.055820864,0.18287104,0.019338906,0.20728862,-0.07369997,0.115713425,-0.055922993,-0.031040039,-0.087521076,0.00722167,-0.009725713,-0.027210113,-0.038111992
sariayu martha tilaar,-0.08194269,0.02966764,-0.2800526,-0.06951806,0.19009417,-0.102925375,0.055586006,-0.08164696,0.048790656,-0.26780432,-0.14946249,-0.027863365,-0.3899787,0.13196027,-0.044799816,-0.06206274,0.014931788,-0.06641096,0.05660542,-0.018206324,-0.120881036,0.34210384,-0.07745442,-0.06984242,0.13968728,-0.20005456,0.18157707,0.1768945,-0.11805341,-0.06851041,-0.04257731,-0.039567824,-0.13452503,-0.15521546,-0.23630503,-0.066781744,-0.048476018,-0.029633176,-0.050536472,-0.25093275,0.06338876,0.06816459,-0.0643862,0.047435015,0.0010381653,0.1062638,-0.13000362,-0.024838217,-0.026101964,0.17691432,-0.012337743,-0.16628104,-0.014528101,-0.021388989,0.015394136,-0.024461806,0.08268167,-0.15764561,0.07459551,-0.012373989,0.1769182,-0.160121,-0.043449797,0.060217246
purbasari,0.023097906,-0.00962744,-0.00045804656,0.041677047,0.06145156,0.013381753,-0.08223173,-0.06589021,0.050796244,-0.09610052,-0.0072568012,-0.036328696,0.014430625,-0.08108121,-0.004408545,0.11492005,0.059150577,-0.038561054,-0.022959325,-0.052463476,-0.046552405,-0.046695296,-0.021865573,0.023225281,-0.022774361,0.011797145,-0.03478397,0.06536506,0.008706069,-0.029922416,0.054367542,0.031777345,0.095068395,0.03116973,-0.0088941585,-0.0232683,0.027097458,0.09283378,-0.0037727668,0.026818605,0.041260965,0.03654579,-0.017793758,-0.060915135,0.0052096746,-0.10784794,0.020598393,0.0087184375,0.0066531394,-0.025602508,-0.035724,-0.001899295,0.032817684,0.10474792,0.06363031,-0.026587918,-0.050899252,-0.09546459,0.025334049,-0.05515135,-0.0016898033,-0.06439286,-0.044825226,-0.038642574
viva cosmetics,-0.10246445,0.022802396,-0.2889145,-0.05998414,0.21533878,-0.10076998,0.047388945,-0.09288343,0.041665226,-0.2769068,-0.1462557,-0.028744906,-0.42142156,0.14849728,-0.043908678,-0.06789857,0.004007149,-0.08288468,0.057588845,-0.017697519,-0.1361519,0.35939664,-0.118157044,-0.06493622,0.10763598,-0.21399918,0.18041804,0.18302742,-0.10071493,-0.06367786,-0.045634132,-0.033758126,-0.13247426,-0.16499206,-0.24490514,-0.049787357,-0.06703018,-0.02734473,-0.060359783,-0.24244153,0.06918528,0.062563024,-0.056675687,0.052999757,0.010639945,0.10398151,-0.12903945,-0.030982856,-0.034785196,0.16600826,0.03115528,-0.17631444,0.012359919,-0.036847554,0.02791915,-0.041749496,0.12885675,-0.16793716,0.08566348,-0.034191184,0.20626515,-0.15911719,-0.03293776,0.057469223
kahf,-0.091036744,0.026628815,-0.28203034,-0.07880171,0.19810244,-0.105961114,0.06464959,-0.079452604,0.050407715,-0.2768991,-0.15906361,-0.027728718,-0.3900258,0.14434516,-0.054314703,-0.06570692,0.018349204,-0.06308641,0.054494865,-0.021021556,-0.124071136,0.3633073,-0.08371244,-0.06948199,0.13723294,-0.19520906,0.1888748,0.17503116,-0.120351896,-0.06668128,-0.038511604,-0.049689874,-0.13618773,-0.17182171,-0.2425408,-0.07686613,-0.046573047,-0.034027472,-0.055078052,-0.25885522,0.0693479,0.07220119,-0.06622353,0.048894107,0.0044694003,0.111849114,-0.13261431,-0.029849716,-0.037372727,0.16550401,-0.0028209882,-0.17588896,-0.010085278,-0.02974766,0.023732634,-0.026700124,0.09044941,-0.15208708,0.0671168,-0.009697573,0.17332056,-0.1596578,-0.043955296,0.066837475
ms glow,-0.05063493,-0.06831081,0.07658136,0.016829887,0.14688955,0.041416056,-0.0847231,-0.035675917,0.054667525,-0.10002282,-0.016666751,-0.06590772,0.119656526,-0.025270337,-0.037646234,0.11840211,0.087389454,-0.027450692,-0.062913194,-0.099256776,-0.08220648,0.014706606,-0.15288535,0.075628564,-0.17453328,0.10272275,-0.08138506,0.022240728,0.044780225,0.035101462,0.10661797,-0.014023036,0.15603128,-0.037118424,0.013184788,-0.05604389,0.0041800933,0.07361452,-0.03533643,0.12030263,0.10050231,0.038231,0.013246028,-0.06328511,0.09590563,-0.14603537,0.07439517,-0.053841315,-0.098456495,-0.20860654,0.12440452,-0.046963267,0.14477971,0.030034445,0.17084426,-0.055835545,0.10635618,-0.06625179,-0.041042395,-0.09146534,-0.019668907,-0.03123005,-0.0016400521,-0.036548227
scarlett whitening,-0.014033612,-0.030857269,0.08174667,-0.0127081,0.1586403,0.014057802,-0.052885026,-0.023564974,0.086183414,-0.13123238,-0.029266927,-0.055748764,0.15107381,-0.00957997,-0.037821405,0.112194724,0.10042455,-0.026035093,-0.061913464,-0.11189549,-0.08681432,0.028231036,-0.13683909,0.090164155,-0.15863065,0.117023006,-0.06262128,0.025387852,0.06805439,0.04592183,0.14556715,-0.051433243,0.16214636,-0.09428822,0.005869408,-0.11762045,0.04936785,0.067616664,-0.07047491,0.09222333,0.1093432,0.070354685,0.032231186,-0.060100768,0.10373431,-0.076765515,0.0722423,-0.06935803,-0.12554187,-0.2107953,0.15218407,-0.05476562,0.1730184,0.022481058,0.21668482,-0.058371548,0.083204985,-0.034646105,-0.056216348,-0.061517276,-0.03236552,-0.0012615526,-0.039668836,-0.03189166
somethinc,-0.09997758,-0.07897801,0.04547748,-0.018532163,0.14937133,0.041618258,-0.04033552,-0.06451492,0.05889132,-0.11893898,-0.063905954,-0.06874354,0.09406836,0.016353773,-0.08450368,0.09943691,0.098006964,-0.0236301,-0.049934514,-0.088186145,-0.08692261,0.09858115,-0.1341441,0.033762928,-0.12188788,0.100839086,-0.048744336,0.0071768262,-0.011208374,0.017937444,0.09762013,-0.061927438,0.12649408,-0.0931739,-0.019172262,-0.07933703,0.025023647,0.075988136,-0.010682961,0.043487452,0.09061788,0.03237445,-0.0055427346,-0.06125039,0.07388897,-0.14774238,0.027337894,-0.044166207,-0.09444232,-0.20522365,0.08696523,-0.080898136,0.09798816,0.015805807,0.12043882,-0.050060183,0.08825596,-0.048554473,-0.07602801,-0.07640642,-0.042598106,-0.03711787,-0.0020920653,0.002232757
dana,-0.052321292,-0.06666793,0.07946557,0.02441552,0.12763435,0.04946801,-0.085433856,-0.057384524,0.05368217,-0.09046796,-0.014653294,-0.06280132,0.123985276,-0.038599394,-0.043405652,0.12648664,0.08540017,-0.03245583,-0.056563057,-0.08881265,-0.07593839,-0.0037452495,-0.13138527,0.06145944,-0.15636969,0.10319009,-0.08554433,0.012828749,0.03723193,0.022784304,0.10391635,-0.014502414,0.15921614,-0.03004573,0.019710524,-0.047650352,0.01866772,0.093935624,-0.020085305,0.105393186,0.08405515,0.029684864,0.012820113,-0.06980185,0.0742539,-0.16201146,0.065980434,-0.039819486,-0.077208616,-0.19939806,0.09470275,-0.03700351,0.12128833,0.045493793,0.14139968,-0.055127073,0.07312176,-0.062339224,-0.043728866,-0.09367934,-0.03301061,-0.026942275,-0.006598912,-0.0335246
ovo,-0.1352498,-0.00074010564,-0.28254372,-0.103787646,0.21526435,-0.09693525,0.08800322,-0.07353844,0.04754792,-0.27484518,-0.18495555,-0.042407453,-0.37892377,0.17564744,-0.08176655,-0.08345738,0.03094351,-0.046371534,0.053388305,-0.028027464,-0.13372847,0.4241089,-0.10511388,-0.07863964,0.13733263,-0.1753603,0.19329467,0.15544835,-0.16086477,-0.057024885,-0.042492498,-0.07631862,-0.15001896,-0.20485106,-0.25035125,-0.09002534,-0.053442456,-0.04970036,-0.038301513,-0.27255726,0.079993546,0.06501619,-0.074079975,0.056011457,0.016830131,0.09696492,-0.13901031,-0.04624948,-0.05957825,0.1305598,-0.002165735,-0.20746027,-0.023190094,-0.057856232,0.011023909,-0.016235886,0.12381844,-0.1481337,0.033088528,-0.008247071,0.15677014,-0.1682365,-0.024281465,0.09000192
gopay,-0.10729204,-0.0065952498,-0.26097393,-0.0326654,0.15172055,-0.06281699,0.022837916,-0.10474262,0.022882327,-0.21903375,-0.13178533,-0.03603018,-0.37861603,0.091334574,-0.04765305,-0.03684902,0.009681412,-0.064516336,0.055973593,-0.001805263,-0.10461399,0.2908072,-0.06458538,-0.09006641,0.13904193,-0.191454,0.14686093,0.15658347,-0.14436838,-0.08748575,-0.07281545,-0.00543966,-0.1224232,-0.08789919,-0.20600095,-0.008372162,-0.06801316,-0.000119743636,0.0028646227,-0.22326583,0.039423432,0.030443553,-0.08211729,0.030947693,-0.02610499,0.0150063615,-0.12604749,0.0021717467,0.019690802,0.17014919,-0.074547365,-0.14008759,-0.06385803,0.011186723,-0.05135019,-0.015510296,0.056754097,-0.1774635,0.07560083,-0.03837232,0.15578921,-0.17970805,-0.01668087,0.05457744
linkaja,0.24014366,0.03899499,-0.084021494,0.031165682,-0.3617376,-0.0313677,-0.03115618,-0.17449258,0.0783634,0.044765625,0.0311447,0.05729917,0.03762147,-0.3789147,0.017974341,0.17325018,0.029790143,0.121379554,0.06963447,0.09002426,0.20200112,-0.37046003,0.6090621,-0.19920942,0.5814309,-0.03429778,0.07407297,0.11810054,-0.29325014,-0.27497762,-0.082202464,0.09411272,0.0008105645,0.31020147,0.06753946,-0.03469443,0.20694885,0.14190784,0.31077006,-0.20965612,-0.1816647,0.0079339845,-0.15862517,-0.115012765,-0.29974177,-0.18312645,-0.12819766,0.25815183,0.34526664,0.41921458,-0.8066313,0.20893681,-0.55002767,0.46306345,-0.42816055,0.14002232,-0.76847243,-0.13204983,0.072108865,0.12612993,-0.2533999,-0.13425383,-0.1378172,0.055205062
bca digital,-0.043751247,0.03829752,-0.24751939,-0.08914584,0.092225954,-0.086382166,0.089852504,-0.10775238,0.07945272,-0.23683007,-0.17665306,-0.012913219,-0.2755819,0.0772403,-0.0880667,-0.013529118,0.052709915,-0.02853563,0.05660093,-0.010668652,-0.068464145,0.28663898,0.07917531,-0.11088489,0.252532,-0.13467185,0.18012545,0.13593365,-0.17887992,-0.10360362,-0.027091097,-0.07950491,-0.11348256,-0.15862845,-0.20258722,-0.12296115,0.052262,0.012911046,0.011426434,-0.30920383,0.017082363,0.0699702,-0.091852516,0.008025751,-0.071532674,0.06932961,-0.16893062,0.030599684,0.02362959,0.1840853,-0.17203563,-0.13076866,-0.11976808,0.049411654,-0.06752521,0.013057657,-0.118494935,-0.10023223,0.020299448,0.046536766,0.04336535,-0.14630133,-0.08405835,0.08269251
jenius,-0.08571673,-0.046532772,0.018450394,0.009208418,0.18867667,0.02468161,-0.04821776,-0.119577795,0.07606651,-0.16405833,-0.055079315,-0.041274108,0.02836797,0.035425223,-0.078872405,0.10918401,0.07238266,-0.080593914,-0.03171303,-0.081281945,-0.11186561,0.098740906,-0.16396374,0.041458413,-0.15514809,0.05779554,-0.033301376,0.037356853,0.061091643,0.009296719,0.109218866,-0.06420985,0.15084207,-0.14097354,-0.040665403,-0.07987445,0.045180768,0.11018235,-0.05185537,0.021679688,0.07818602,0.04207423,0.025558833,-0.060119066,0.06707007,-0.10892992,0.0030718634,-0.030811638,-0.09309107,-0.18776217,0.16998142,-0.079359636,0.16334125,0.018801536,0.15501086,-0.09997963,0.10122441,-0.04372488,-0.039898653,-0.10295045,0.010260428,-0.0055026403,-0.026224561,-0.010754658
seabank,-0.052158013,-0.039222382,0.078252986,-0.03160564,0.16315651,0.023041852,-0.019422283,-0.076786466,0.1063779,-0.1530003,-0.068131775,-0.04610692,0.16443947,0.021728221,-0.094070524,0.12530687,0.11312646,-0.03668025,-0.054039452,-0.10721384,-0.08921557,0.078857906,-0.11300407,0.05993752,-0.13655123,0.13831198,-0.0479051,0.0052854554,0.048933506,0.030988608,0.15628895,-0.10648061,0.17802528,-0.16472776,-0.009022636,-0.15650901,0.0989859,0.0968365,-0.054371424,0.035130754,0.09230981,0.06940456,0.02882675,-0.07588531,0.08127153,-0.09561163,0.02424354,-0.046399593,-0.12743105,-0.24041635,0.14244558,-0.07280955,0.15888903,0.024038475,0.18802267,-0.07353848,0.044157915,0.004495821,-0.09599863,-0.05564606,-0.07633888,0.01890295,-0.049996905,-0.0036916016
bank jago,-0.015735555,0.022914577,-0.0767715,0.8626139,-0.37248838,0.21391004,-0.71160936,-0.67057544,-0.14133433,0.08327125,0.3463105,0.27254713,-0.6091505,-0.67855746,0.0993582,0.25423515,-0.42015725,-0.53041905,0.27488685,0.4041859,0.19658628,-0.84546566,0.3764586,-0.26357892,0.07383941,-0.46154505,-0.30243838,0.5595583,0.443933,-0.25340843,-0.3366896,0.91994447,0.469476,1.2606416,-0.033899397,0.66266197,-0.35026115,0.3632566,0.10910633,0.2586158,-0.31197014,-0.1602526,0.12220607,-0.55507666,-0.27434817,-1.0307109,-0.25703165,0.5334904,0.6471009,0.85060555,-0.7131332,0.53549916,-0.31735852,0.7452498,-0.41893393,-0.14380305,-0.40607047,-0.5865289,0.6585554,-0.43613067,0.44423783,-0.28305992,0.17066167,-0.2972993
livin' by mandiri,0.19852996,0.0036009755,-0.086266294,0.13709654,-0.3652574,-0.01698469,-0.094404116,-0.25501135,0.04734276,0.076606855,0.0916415,0.092369616,-0.024411386,-0.42813843,0.053914122,0.15559283,-0.042656485,0.08486125,0.09847704,0.12861092,0.20168477,-0.44851255,0.59092045,-0.20196189,0.5164257,-0.094508685,0.04743833,0.17647672,-0.21437362,-0.2778769,-0.1167958,0.19094586,0.05754971,0.41807702,0.076084614,0.05747838,0.14522658,0.16562246,0.330265,-0.14804868,-0.21714282,-0.01000292,-0.12976873,-0.14719826,-0.28781626,-0.27010375,-0.13294515,0.28729725,0.37964696,0.46989015,-0.76856816,0.25570682,-0.54377496,0.51342404,-0.44849497,0.10486957,-0.7123285,-0.20131707,0.1280812,0.03909653,-0.18622135,-0.111764036,-0.08754692,0.03493275
flip,-0.036649764,-0.0398305,0.090719655,-0.012571873,0.1354441,0.033766814,-0.037769947,-0.08317611,0.10055873,-0.13068259,-0.050511587,-0.043783247,0.17939411,-0.010849856,-0.08440471,0.14256403,0.109475516,-0.03540837,-0.055511422,-0.10099953,-0.07609073,0.029559767,-0.08928959,0.057317264,-0.13162178,0.14137715,-0.06322125,0.00080824626,0.051137887,0.022150595,0.15123266,-0.08655408,0.18827915,-0.12723193,0.010003572,-0.13586962,0.10191716,0.112457305,-0.03968706,0.051247507,0.07875863,0.059458308,0.025851618,-0.08486139,0.06536889,-0.119470775,0.030677423,-0.030425295,-0.10273117,-0.23068522,0.111813456,-0.048744112,0.14108883,0.047209103,0.16845798,-0.069611035,0.011498109,0.00085404865,-0.08709859,-0.059587482,-0.087176494,0.018214919,-0.04988821,-0.014066483
gojek,-0.12729228,-0.379758,0.20485148,-0.069955476,0.26442748,0.28923354,0.22969924,-0.30827093,0.38290334,0.12823616,0.2711715,-0.20451888,0.778596,0.018018048,0.33387142,-0.117045246,0.2726083,-0.15323147,0.6582533,-0.19959496,-0.08669637,-0.28187948,-0.19078727,-0.20532507,0.4429453,0.1801801,-0.25956526,-0.019303663,-0.35520077,0.35932773,-0.19775958,-0.2040285,0.19251928,-0.39314497,0.31048942,-0.4577086,0.23758022,0.02211047,0.26491234,0.088842995,-0.17548764,-0.327524,0.6823273,0.6389989,0.29109234,-0.29005933,-0.06840606,-0.39412203,0.034330443,0.11049096,-0.27302322,-0.20431948,-0.32543814,0.1216494,-0.384748,0.41191536,-0.19640405,-0.26575297,-0.424167,-0.29058853,-0.090774804,0.29961133,0.20891544,0.26475745
grab,-0.13338065,-0.3763898,0.1564096,-0.07365037,0.28848973,0.26872608,0.24280964,-0.30148393,0.3785953,0.114591345,0.23820217,-0.20757417,0.68915784,0.027857466,0.33706075,-0.14258017,0.25075138,-0.16826741,0.67461497,-0.1784533,-0.10298742,-0.23093382,-0.20206991,-0.2305026,0.46886927,0.13098124,-0.23785517,-0.005742209,-0.39217916,0.33680603,-0.22644167,-0.2115761,0.13746576,-0.41159523,0.27521443,-0.44193065,0.20105605,0.0029952824,0.28759027,0.028475294,-0.16495322,-0.33464146,0.6758143,0.6333604,0.28707612,-0.26029325,-0.07910335,-0.3961529,0.048192155,0.1516778,-0.2937121,-0.23265037,-0.35074723,0.10904414,-0.414801,0.42446947,-0.17713307,-0.28746435,-0.41054076,-0.2863918,-0.03939957,0.2636848,0.22110486,0.27788138
traveloka,-0.12627743,-0.07925251,0.06862043,-0.0014366544,0.12790088,0.05144825,-0.049466327,-0.08496599,0.041516263,-0.111136675,-0.051903214,-0.06446558,0.08496487,-0.0010367585,-0.09052981,0.10402793,0.08592071,-0.034458145,-0.041977555,-0.06325215,-0.08155122,0.07169762,-0.14455909,0.022515275,-0.1278902,0.10102515,-0.05281028,-0.006487655,0.0014033781,-0.007686846,0.09473704,-0.04855346,0.13789535,-0.07221324,-0.0079465555,-0.051872194,0.023433618,0.10365306,-0.010208991,0.032951333,0.078919604,0.024642391,0.004017954,-0.058876917,0.0490306,-0.17831844,0.047389343,-0.04714894,-0.083221,-0.21314058,0.07022042,-0.06505027,0.07627772,0.029504292,0.10604868,-0.06318031,0.080022424,-0.04466976,-0.0768452,-0.10213309,-0.051498435,-0.03280671,-0.008295244,0.010576829
tiket.com,-0.3190412,-0.15045643,-0.25048834,0.5502703,0.26432294,0.16571061,-0.474843,-0.49467388,-0.29578587,-0.106131524,0.25839588,0.077268355,-1.0070728,-0.013122383,-0.00061865523,0.1344567,-0.35582852,-0.46851346,0.1920667,0.2569009,-0.20518231,-0.06915425,-0.63617015,-0.08072725,-0.4669136,-0.53156793,-0.048980344,0.23465964,0.28951836,-0.27419454,-0.2459696,0.5320853,0.13115333,0.35611904,-0.1321154,0.7994076,-0.4394775,0.32478595,-0.07012443,0.12683286,-0.11098366,-0.3565911,0.059210926,-0.07546483,-0.088373184,-0.48683807,-0.08461295,0.1919908,0.2349028,0.21321087,0.35000473,-0.0074169654,0.19981652,0.058589302,-0.09435633,-0.32697338,0.5390492,-0.445802,0.49570307,-0.6134343,0.7399028,-0.26049733,0.18366411,-0.21150388
lion air,-0.09660649,-0.05551172,0.08767481,-0.05661593,0.18865263,0.007568068,-0.0040592877,-0.04169161,0.08626516,-0.1907344,-0.08929625,-0.046119228,0.15134627,0.057332635,-0.12003986,0.10909337,0.11993058,-0.022388287,-0.072627984,-0.10902782,-0.09579149,0.14373551,-0.16601788,0.075432606,-0.16999778,0.15058225,-0.02329174,0.0027000033,0.05970689,0.03149876,0.16841501,-0.11448611,0.17143425,-0.18078613,-0.029435355,-0.16664621,0.07092093,0.07351707,-0.09056619,0.02680846,0.13577083,0.09268473,0.017980095,-0.06865528,0.099563226,-0.08762607,0.052606564,-0.08451911,-0.17901589,-0.2883228,0.1823192,-0.09789808,0.18044162,-0.0052247755,0.24714711,-0.08682673,0.097724214,0.009364143,-0.10634237,-0.059852697,-0.07603311,0.0034588093,-0.050690964,0.016965542
garuda indonesia,-0.050670832,-0.04573945,0.07119019,-0.008465711,0.09732759,0.022110898,-0.044229023,-0.06804021,0.063399464,-0.13806999,-0.052525617,-0.03411828,0.12196156,-0.02941741,-0.09087001,0.13889155,0.09867405,-0.020517692,-0.058308344,-0.07348932,-0.05413443,0.029468598,-0.06979065,0.039762087,-0.09617431,0.11371245,-0.03285782,0.011027042,0.031581424,-0.017072057,0.12180124,-0.050605062,0.15635642,-0.068369344,-0.0039826864,-0.09696206,0.071021885,0.109076306,-0.03527481,0.02072817,0.08380091,0.061829828,-0.0093449205,-0.08172737,0.028716361,-0.13507181,0.0418385,-0.02421756,-0.08043389,-0.19197306,0.043910183,-0.036767624,0.084041834,0.0685665,0.14627752,-0.063775845,-0.021726958,-0.019330775,-0.0600484,-0.057435345,-0.08472556,-0.024443515,-0.05401348,-0.00028775475
j&t express,-0.13501638,0.001124572,-0.258161,-0.07475382,0.17858621,-0.08999087,0.0722081,-0.10960878,0.038223535,-0.28710353,-0.17744222,-0.013916665,-0.373007,0.143741,-0.10418747,-0.038335815,0.023833465,-0.05703512,0.04387795,-0.006357195,-0.11302944,0.37395465,-0.07889269,-0.08296734,0.12960862,-0.16188447,0.19589701,0.14897048,-0.118893534,-0.09613508,-0.028756948,-0.05978992,-0.10931379,-0.18212414,-0.23334825,-0.07254957,-0.02681936,0.0035138691,-0.043100044,-0.2853689,0.06477152,0.06776911,-0.0824952,0.027855545,-0.031803623,0.060013358,-0.13597786,-0.016592195,-0.03844653,0.11151915,-0.022179049,-0.17208883,-0.03182797,-0.009651504,0.0143131465,-0.04688777,0.050945103,-0.1277067,0.045794062,-0.023021778,0.12317648,-0.15865964,-0.053460147,0.08892703
sicepat,-0.13732958,0.009357171,-0.26629055,-0.124978475,0.20031065,-0.112408996,0.11978668,-0.08151661,0.059080042,-0.31468615,-0.21304686,-0.017879277,-0.3508957,0.1848902,-0.12412509,-0.064239755,0.04446216,-0.032666422,0.04093302,-0.024298413,-0.12097864,0.44478482,-0.0754916,-0.078457594,0.15172403,-0.14157598,0.22547369,0.14409989,-0.14180306,-0.07931899,-0.008064534,-0.1069381,-0.12899362,-0.24900761,-0.2537057,-0.13542253,-0.0049159657,-0.029888222,-0.060570545,-0.32156622,0.08532343,0.09292245,-0.08362873,0.04086842,-0.012625269,0.11443806,-0.14500314,-0.04310645,-0.08169362,0.09406028,-0.0074115484,-0.20691426,-0.025318235,-0.041892126,0.044121303,-0.034567088,0.060415573,-0.10342904,0.0118744215,0.01134941,0.10211943,-0.1523,-0.06581096,0.11274925
anteraja,-0.08729407,-0.056720003,0.09587264,-0.040718723,0.17086127,0.015902657,-0.01951458,-0.048533194,0.08091202,-0.17460072,-0.075088754,-0.0440804,0.15778825,0.034217417,-0.11224321,0.121339545,0.11524143,-0.023539139,-0.07303316,-0.103853896,-0.08771388,0.108142465,-0.15297545,0.07328534,-0.17012823,0.1504522,-0.03467057,0.0005454461,0.06341652,0.024559263,0.16376314,-0.098622896,0.17966937,-0.15252015,-0.016131587,-0.1483553,0.070598945,0.08563089,-0.08051018,0.04006414,0.12567012,0.08400823,0.016581751,-0.074638665,0.08896058,-0.10625115,0.057376098,-0.07260661,-0.16062918,-0.28139982,0.16447026,-0.08038297,0.16974708,0.0106678475,0.23315859,-0.08628171,0.07900414,0.0052109538,-0.09818967,-0.06591901,-0.079824,0.003007033,-0.04883793,0.008696073
pos indonesia,-0.04848948,-0.039036043,0.059867717,-0.0317789,0.09869266,0.009771848,-0.02272718,-0.056275636,0.071417525,-0.15048933,-0.07019733,-0.034551177,0.12171739,-0.015540406,-0.09879987,0.12707834,0.10728257,-0.009251628,-0.056681465,-0.076844856,-0.052834358,0.059137736,-0.055718888,0.034977857,-0.06962095,0.115451,-0.014991434,0.013346514,0.012756497,-0.016602892,0.12455533,-0.068584464,0.14006716,-0.09042689,-0.0169465,-0.12273504,0.07996406,0.093971536,-0.038054924,-0.0044643907,0.0892303,0.07309131,-0.014746096,-0.07608876,0.029759146,-0.11104901,0.033164665,-0.030349294,-0.09034151,-0.18295315,0.030808572,-0.049646378,0.072915286,0.061160784,0.14725035,-0.053646646,-0.031760454,-0.012291843,-0.07045621,-0.037509456,-0.09353201,-0.028516956,-0.06201451,0.011884293
erigo,-0.03550466,-0.09145042,0.04745776,-0.007698898,0.14126989,0.05453641,-0.058641564,-0.067029014,0.077640586,-0.06850938,-0.038843,-0.07974635,0.18147555,-0.025691973,-0.06403063,0.116444826,0.11627365,-0.012740979,-0.053700913,-0.12343165,-0.084392324,0.036276553,-0.087430716,0.05483213,-0.10395749,0.12325508,-0.10364366,-0.006116078,-0.054019667,0.069297194,0.10246891,-0.05778684,0.13230935,-0.07262324,0.016932331,-0.081031784,0.043684773,0.0781755,0.035628513,0.08966082,0.08404666,0.017989304,0.007594867,-0.08124238,0.08656093,-0.15783647,0.02049246,-0.032517523,-0.06938692,-0.1855136,0.05457761,-0.073487446,0.10075762,0.03029332,0.08237118,-0.0060596084,0.04118874,-0.08130346,-0.06623563,-0.05645948,-0.049195975,-0.03430239,0.017827641,-0.023827352
3second,-0.118762285,-0.03100841,-0.3042034,-0.088688076,0.21107583,-0.07304801,0.07248118,-0.10753183,0.052303076,-0.22850323,-0.17534404,-0.05495407,-0.34327674,0.15317877,-0.08291682,-0.07251659,0.04093452,-0.051265426,0.060842928,-0.045042984,-0.13595164,0.40257084,-0.06460404,-0.09138042,0.16729805,-0.17776117,0.15109706,0.14096414,-0.22684464,-0.026851853,-0.06422534,-0.07908791,-0.15748021,-0.18405041,-0.23611379,-0.06794175,-0.047506273,-0.037621398,0.028195934,-0.25658923,0.060512904,0.030519387,-0.080531664,0.034128092,0.015159698,0.0540253,-0.17807157,-0.015338892,-0.013357472,0.16211188,-0.05219246,-0.20996568,-0.046411198,-0.047282405,-0.072519794,0.020723771,0.08836953,-0.18592933,0.038358252,-0.0037670704,0.15907477,-0.17821881,0.011714721,0.07747653
hammer,-0.070979014,-0.094131306,-0.00899667,0.0037265471,0.18140244,0.044707097,-0.061335444,-0.091728695,0.06208687,-0.096384406,-0.04584799,-0.0774544,0.06697294,0.0119906645,-0.060890026,0.088594265,0.08981157,-0.044433214,-0.034904882,-0.10923086,-0.11043239,0.09547329,-0.13904406,0.04048249,-0.11306268,0.06036736,-0.07657772,0.022159176,-0.051389188,0.05883291,0.07083805,-0.04555928,0.100511506,-0.08610749,-0.023793364,-0.045937054,0.0036018514,0.07181318,0.02620675,0.061432797,0.08426197,0.0069736904,0.0045829075,-0.061540835,0.087552294,-0.14416017,-0.0042826794,-0.03332759,-0.06351265,-0.14962646,0.09291816,-0.09802291,0.11454722,0.0077619646,0.07034151,-0.025965493,0.105427936,-0.11371286,-0.032955255,-0.08408089,0.021355417,-0.05406896,0.03332632,-0.018689394
lois indonesia,-0.08764316,-0.09030217,-0.02974432,-0.029712243,0.21488403,0.026173368,-0.030468166,-0.07888898,0.071516335,-0.12761268,-0.07387749,-0.08045807,0.048329525,0.056895122,-0.07668324,0.063000225,0.09769423,-0.040107034,-0.033033665,-0.11817251,-0.12608323,0.16745853,-0.16246122,0.041977786,-0.10942726,0.057729274,-0.049566552,0.026710838,-0.061944444,0.06940259,0.07880928,-0.077424556,0.08011012,-0.14251232,-0.052160867,-0.08033058,0.0046605477,0.04742854,0.0072047007,0.031179558,0.10330895,0.02271387,0.005934683,-0.04740858,0.10562942,-0.10318956,-0.01482319,-0.054990787,-0.097569205,-0.15972528,0.12584239,-0.1334517,0.13106003,-0.025350194,0.09487408,-0.027331922,0.14132152,-0.10482136,-0.048113864,-0.070668474,0.031861022,-0.054668605,0.030101553,-0.00086477253
the executive,-0.059267968,-0.08898923,-0.0013645781,-0.013521636,0.17054817,0.03955936,-0.046908837,-0.07800919,0.07096617,-0.096041106,-0.054722954,-0.078029305,0.09714143,0.010088779,-0.06686838,0.088578075,0.101998985,-0.02861562,-0.038393162,-0.1146613,-0.10246894,0.0976836,-0.11548033,0.040963937,-0.093001276,0.07786075,-0.072269976,0.015616924,-0.06437254,0.06132756,0.08060507,-0.05971447,0.09842267,-0.09617055,-0.020789575,-0.07088291,0.020663992,0.064453654,0.02764633,0.052372698,0.08699032,0.016598955,0.001723252,-0.06331547,0.08686465,-0.13255568,-0.0035480135,-0.03637103,-0.07035886,-0.15272687,0.07311253,-0.0993114,0.10251059,0.009532877,0.07303387,-0.013945991,0.08054899,-0.10039673,-0.048292264,-0.06382883,-0.0031041433,-0.05137899,0.024054147,-0.012296343
brodo,-0.076789856,-0.09627138,-0.024007762,0.024448264,0.17950583,0.049163543,-0.07685408,-0.10792759,0.050805986,-0.09241181,-0.03582193,-0.07491735,0.027161954,0.005041372,-0.051813204,0.08929524,0.0749989,-0.05918775,-0.027779171,-0.098207615,-0.11254264,0.084583715,-0.14563993,0.032516032,-0.11485218,0.034268495,-0.07758331,0.03201391,-0.04713127,0.04835403,0.052532397,-0.024556637,0.09517938,-0.06327115,-0.027558403,-0.014539082,-0.013158774,0.08093953,0.032686364,0.062193386,0.07421745,-0.0050505246,0.0013924331,-0.060183205,0.07722886,-0.15777838,-0.010450066,-0.021990713,-0.042731885,-0.12659438,0.08841516,-0.090574026,0.10916942,0.015536511,0.050904263,-0.03230834,0.11110154,-0.1317291,-0.011214541,-0.10049987,0.04477286,-0.06316411,0.04062797,-0.02496342
geoff max,0.24628162,-0.009795748,-0.11195582,0.04366581,-0.348048,0.009399097,-0.08326246,-0.15430146,0.05431407,0.11958736,0.053755093,0.004028392,0.043496273,-0.39715803,0.04436993,0.1758149,0.039587043,0.1343817,0.050405353,0.061926283,0.19245864,-0.3851393,0.58377564,-0.20027722,0.5748596,-0.04031482,0.0064520165,0.0902124,-0.39487904,-0.23174436,-0.13125049,0.12394693,-0.051898003,0.38181287,0.09250217,0.04083019,0.14001422,0.120615795,0.38511243,-0.13514519,-0.17513925,-0.055863936,-0.18654461,-0.11037299,-0.27751404,-0.2382954,-0.12670496,0.26463935,0.38869482,0.43004984,-0.8502201,0.19344184,-0.56814325,0.43921423,-0.5187848,0.19160391,-0.7217096,-0.20723265,0.09905695,0.119836494,-0.21285784,-0.1988053,-0.06709669,0.019904412
monstore,-0.031106606,-0.009407646,-0.26009202,-0.07631016,0.08340888,-0.05534761,0.057456236,-0.08852957,0.060455162,-0.16421242,-0.1542586,-0.051294453,-0.23356135,0.045269936,-0.06619168,-0.01956967,0.06734958,-0.01044777,0.056620993,-0.031740252,-0.06517475,0.2578233,0.098364934,-0.1142961,0.27678758,-0.13766733,0.12100652,0.1194485,-0.2752155,-0.06012027,-0.07258913,-0.051435303,-0.14699544,-0.07729716,-0.17910075,-0.07285716,0.0061821747,-0.012096384,0.08481205,-0.25284466,0.016449768,0.027020734,-0.11090371,-0.0007704778,-0.046149112,0.007430699,-0.17268583,0.036237657,0.06719609,0.2236807,-0.24844149,-0.13401666,-0.16233481,0.048930738,-0.15252031,0.08006366,-0.11459096,-0.16828558,0.029920654,0.05275733,0.056943513,-0.1905126,-0.021176722,0.061690517
damn! i love indonesia,-0.05289507,-0.096333124,0.009242115,0.034366287,0.14556909,0.061410815,-0.08872621,-0.10216099,0.053068772,-0.0661,-0.020624857,-0.07446402,0.085000314,-0.03177335,-0.0464675,0.11278933,0.083123714,-0.04696399,-0.03667923,-0.09999494,-0.093690634,0.02683178,-0.11123791,0.03798457,-0.11031948,0.062653676,-0.10103436,0.017359909,-0.044461332,0.04790697,0.06239949,-0.015119912,0.11710362,-0.03222023,0.0028590737,-0.0143932495,0.0045348736,0.094571024,0.045823585,0.08674644,0.06545159,-0.007124167,0.0012968387,-0.075343445,0.067177296,-0.18141937,0.0044677304,-0.011579586,-0.029374182,-0.13639627,0.05447211,-0.06413175,0.09429766,0.04060507,0.043969095,-0.02184201,0.06489521,-0.12159267,-0.018424187,-0.093315095,0.008778296,-0.055103905,0.03458532,-0.034969628
cottonology,0.0033442832,-0.03794651,-0.10331224,0.8539871,-0.40569335,0.25110373,-0.7706454,-0.62399846,-0.24038957,0.22206213,0.40194425,0.24637412,-0.6572584,-0.7411982,0.12041212,0.2995371,-0.4049673,-0.52148163,0.28766513,0.407331,0.18628074,-0.8786182,0.33152783,-0.29371747,0.0939555,-0.5062274,-0.35415506,0.48031342,0.2929127,-0.28689426,-0.36614096,0.915879,0.37846398,1.3189442,-0.016348355,0.8257232,-0.41565567,0.39557648,0.20628326,0.31344277,-0.3008467,-0.26728642,0.09547758,-0.5280884,-0.31073785,-1.0616682,-0.21011525,0.57288396,0.742949,0.87429714,-0.755543,0.5138227,-0.37764016,0.6504879,-0.5431746,-0.07557917,-0.3528057,-0.63610935,0.66319466,-0.4470389,0.57119614,-0.38686,0.2427726,-0.32635212
advan,-0.060162395,-0.061411627,0.06639272,-0.008317076,0.14207524,0.035004348,-0.04362129,-0.08208247,0.09228566,-0.1338692,-0.060807258,-0.04488076,0.13494831,0.00093482854,-0.09450095,0.14227754,0.105086975,-0.03461541,-0.054245953,-0.098596126,-0.07411292,0.059032954,-0.09597878,0.048663467,-0.133037,0.12372741,-0.051629826,0.018866967,0.031121615,0.013474005,0.118749015,-0.07501835,0.17763935,-0.122874215,-0.0074909353,-0.12404977,0.073068485,0.09581931,-0.027347684,0.055503566,0.07944518,0.053403296,0.00815843,-0.078815505,0.068041235,-0.14374073,0.014507398,-0.020299438,-0.10420373,-0.22265325,0.10458567,-0.05868566,0.13383234,0.044102423,0.1541731,-0.06840748,0.032777093,-0.012658877,-0.07666602,-0.06706488,-0.076548986,-0.008200879,-0.028115496,-0.008986356
axioo,-0.085235246,-0.06711762,0.019633412,0.02454296,0.15960783,0.03647727,-0.066712655,-0.11544801,0.06857188,-0.14114383,-0.049946688,-0.04097659,0.02916115,0.009410752,-0.08161614,0.13050437,0.07313643,-0.06846659,-0.036645234,-0.077497475,-0.09026034,0.07133439,-0.1323629,0.033191703,-0.14498022,0.060228735,-0.04060653,0.043985605,0.03946279,-0.004352729,0.08035144,-0.04099104,0.15602365,-0.10137046,-0.031243086,-0.063563764,0.031278573,0.10664357,-0.023467649,0.044901542,0.066979885,0.03160424,0.0044080867,-0.06696477,0.0554818,-0.15543807,-0.002300037,-0.006811305,-0.07515128,-0.17931049,0.121638685,-0.06215202,0.13480206,0.042545196,0.12539262,-0.08774697,0.07354976,-0.050985172,-0.03234109,-0.10333425,-0.010491969,-0.027906142,-0.009685041,-0.014918937
polytron,-0.076062486,-0.059352018,0.027876824,-0.011017534,0.15904298,0.024277259,-0.036661297,-0.09142647,0.08598596,-0.15230685,-0.0717017,-0.04338554,0.070362546,0.023576088,-0.095531754,0.122785434,0.09382893,-0.046077244,-0.042289175,-0.08996752,-0.08525058,0.09907603,-0.11144978,0.03660152,-0.1206772,0.08780229,-0.02858537,0.035815053,0.021153353,0.005434771,0.09976068,-0.07312913,0.1505284,-0.13572197,-0.035063416,-0.11296652,0.055449836,0.08754256,-0.0302982,0.026444335,0.07915619,0.05131799,0.0029602242,-0.06594192,0.06465076,-0.12713051,-0.0034337617,-0.020500619,-0.100165926,-0.19288224,0.110903755,-0.07595603,0.12948266,0.032700457,0.14227045,-0.072821334,0.055319294,-0.028535392,-0.06080013,-0.07188702,-0.04254122,-0.022487193,-0.023613038,-0.0009554583
evercoss,-0.06740099,-0.0518468,0.009737276,-0.018959017,0.14375995,0.01630308,-0.02713786,-0.0893881,0.08653054,-0.15391691,-0.079491675,-0.0410213,0.054205056,0.020034488,-0.09579918,0.116789296,0.09422177,-0.039248466,-0.03613629,-0.08368157,-0.07738797,0.104310796,-0.08300373,0.023696197,-0.08288933,0.07589154,-0.0136394575,0.04178094,-0.00049462216,-0.005122224,0.0890515,-0.07323534,0.13067,-0.13170025,-0.04391911,-0.11670294,0.05979976,0.082150325,-0.021327216,0.0010845406,0.072422534,0.0532332,-0.007547575,-0.06256012,0.04996202,-0.11606854,-0.015451672,-0.012805499,-0.08664392,-0.16138914,0.07286608,-0.07596038,0.10041936,0.040713467,0.12013456,-0.060858786,0.025976628,-0.031644277,-0.05668647,-0.05673769,-0.046066307,-0.033551406,-0.029841103,0.0059730187
zyrex,-0.09030165,-0.070613556,0.06918223,-0.011794418,0.19053878,0.034455273,-0.040067732,-0.08383861,0.09383784,-0.15507084,-0.06721327,-0.048956096,0.12308328,0.038992807,-0.10187179,0.13014893,0.10286905,-0.04933399,-0.057319432,-0.109197885,-0.099224284,0.10398804,-0.15908235,0.0646046,-0.18522252,0.1250649,-0.052907445,0.020239446,0.056771442,0.032087784,0.1311924,-0.08892228,0.18856713,-0.16109386,-0.019634979,-0.13078855,0.05840586,0.08813555,-0.0525142,0.0685412,0.09879972,0.058132127,0.023306904,-0.07270256,0.0997404,-0.13542339,0.019219615,-0.043121666,-0.14098239,-0.26295847,0.18370101,-0.08259928,0.18690738,0.011012437,0.19619113,-0.089704305,0.10710846,-0.011377797,-0.08363019,-0.087337054,-0.051632527,0.002829723,-0.0180846,-0.008049051
smartfren,-0.05153381,-0.035592124,0.0016545169,-0.044725876,0.15217249,0.00080095365,-0.0034078863,-0.07450107,0.099835426,-0.16625443,-0.0918304,-0.04338369,0.06805773,0.03384072,-0.09409812,0.09930881,0.1041008,-0.029251575,-0.032867193,-0.092813976,-0.08171226,0.12684062,-0.07426697,0.027246835,-0.0584685,0.080005944,-0.0013898383,0.04040076,-0.0126329195,0.0070777377,0.1025642,-0.094545335,0.11330238,-0.16025555,-0.05248038,-0.1492534,0.07512723,0.0670681,-0.030991733,-0.022501092,0.0815207,0.06836769,-0.0013992819,-0.054952174,0.0575495,-0.07346703,-0.016253162,-0.028996304,-0.100797,-0.15207069,0.07129126,-0.09059672,0.09946513,0.0285321,0.13088864,-0.049014144,0.018945254,-0.026790775,-0.067308165,-0.033009127,-0.048306115,-0.028960673,-0.042956278,0.014370458
myrepublic indonesia,-0.015746936,0.032708667,-0.23754318,-0.07471466,0.04899414,-0.07476802,0.06909159,-0.09759106,0.07769809,-0.20486704,-0.16429062,-0.014414506,-0.24795483,0.033331748,-0.078383714,0.012394137,0.05957318,-0.014481928,0.053237963,-0.0087978095,-0.040707283,0.2293661,0.13198262,-0.11717224,0.28056192,-0.12636793,0.1622445,0.13740116,-0.20222603,-0.11397999,-0.048068676,-0.055346154,-0.10915227,-0.1053738,-0.1817595,-0.112576365,0.051886875,0.015320097,0.0415096,-0.28562793,0.0025316838,0.06286687,-0.107540645,-0.0028917606,-0.08722764,0.031981476,-0.16600275,0.05497604,0.054637343,0.20713577,-0.24391875,-0.10197693,-0.1590403,0.08513245,-0.10218345,0.036064707,-0.17772508,-0.10692777,0.027475446,0.05948449,0.015938193,-0.16473937,-0.078932144,0.071361795
biznet,-0.009348998,0.031417605,-0.23857985,-0.052429378,0.05343051,-0.07212959,0.041855384,-0.08928692,0.06332336,-0.19444354,-0.14026162,-0.018270075,-0.27206555,0.01988753,-0.052947745,0.011460559,0.045959637,-0.02403178,0.053109534,-0.005757473,-0.043552607,0.20145014,0.107619956,-0.10655781,0.25658393,-0.14703093,0.14945565,0.14949913,-0.18588537,-0.111566104,-0.061790902,-0.022716295,-0.11063163,-0.06547669,-0.17608345,-0.07803355,0.020488653,0.011866989,0.036591455,-0.25336492,0.0055056782,0.05539354,-0.10378413,0.002388112,-0.0775955,0.02319346,-0.14734147,0.05099296,0.063032396,0.22169684,-0.23021504,-0.0905905,-0.14616239,0.086707085,-0.09614502,0.03283165,-0.14791068,-0.1320644,0.054521434,0.041444868,0.048426174,-0.17468148,-0.06708701,0.05425521
indihome,-0.8865365,0.13214478,0.9716977,-0.1834652,-0.52421135,0.2276373,0.28215936,0.5121522,-0.7657715,-0.050820768,0.309148,-0.3187089,0.4431592,-0.006394931,0.020173896,-0.519288,0.08658538,0.29006127,-0.11406996,0.48664498,0.0020236513,-0.13814521,-0.8760675,0.11863529,-0.27474284,0.44968268,0.032114904,-0.52953076,0.5832355,-0.24023719,0.6657727,0.16498874,0.0017002989,0.8958639,0.32206511,0.6476589,-0.2994969,0.35654575,-0.39026624,-0.062334344,0.27286053,-0.0675582,0.15890452,0.026049446,-0.3104254,-0.2395511,1.2221704,-0.8888583,-0.15583144,-0.74160683,-0.2791319,0.30298,-0.4785805,-0.14572024,0.64165217,-0.0699116,0.6084001,0.13534911,-0.26539433,-0.44745648,-0.3089973,0.16212675,-0.43758035,0.34170505
bardi,-0.17406154,-0.035791118,-0.29264164,0.025460336,0.22335973,-0.041593425,-0.014789531,-0.19506544,0.013700512,-0.25445387,-0.12522916,-0.015217641,-0.49032682,0.13848834,-0.07479703,-0.01318352,-0.032461528,-0.13810381,0.063773975,0.010091648,-0.14554094,0.32599762,-0.16977474,-0.08525138,0.025839366,-0.23265637,0.14322174,0.18305959,-0.06841848,-0.097871825,-0.08739428,0.014128532,-0.07519536,-0.14159434,-0.22895312,0.047424965,-0.09612958,0.047346763,-0.015542803,-0.20289442,0.027583683,0.0011147708,-0.057465173,0.02566167,-0.023059528,-0.032565262,-0.16148482,0.029103016,0.008283827,0.12404687,0.06756807,-0.15990251,0.029397417,-0.0054264967,-0.027491264,-0.098016754,0.15741768,-0.18822473,0.117477074,-0.122732975,0.22978115,-0.16395326,0.010666891,0.04076179
bank bca,-0.17461623,-0.20063531,-0.17585123,-0.073698245,0.2326937,-0.18159384,0.12328961,-0.2658861,0.019400414,-0.25563124,-0.18131101,-0.039928604,-0.068356775,-0.0085336445,-0.23778127,0.029892787,0.048306245,0.0030472837,0.06957182,-0.06112896,-0.13227919,0.4830105,0.08800192,-0.1736233,0.20266843,-0.06492953,0.09472093,-0.01555882,-0.49737376,-0.011941824,0.0037613844,-0.16361424,0.0067846067,-0.27291858,-0.2135213,-0.16771838,0.04174349,-0.047163367,0.04176889,-0.38750607,-0.008491289,0.020162659,-0.1389628,-0.03039557,-0.031076655,-0.08095657,-0.30033103,0.0085684545,-0.0185466,0.055336244,-0.14528072,-0.1824153,-0.043507002,0.034869287,-0.20706753,0.110869415,-0.062173296,-0.20959345,-0.09381803,0.005148001,-0.12674655,-0.1874499,0.045968555,0.13333046
bank mandiri,-0.11986306,-0.28562325,0.15973645,0.011070509,0.17977959,-0.06252475,-0.058780245,-0.2571431,0.020733772,-0.10937202,-0.029037349,-0.085965395,0.43177205,-0.23269242,-0.22952414,0.24095124,0.11331302,0.009060974,-0.056165114,-0.13370898,-0.089355856,0.103290915,0.014388645,-0.016743537,-0.14749101,0.23665261,-0.19083886,-0.16083938,-0.30919904,0.10041308,0.1824864,-0.12726283,0.31335655,-0.17145738,0.028147522,-0.12598139,0.0960792,0.10337861,0.043848027,0.003273935,0.03030893,-0.0034874836,-0.020093698,-0.14327405,0.042323537,-0.32868415,-0.06464313,-0.011571443,-0.060927648,-0.33383337,0.01781418,-0.057224922,0.1424767,0.105245605,-0.04740015,0.070748925,-0.056824334,-0.12904277,-0.15733463,-0.09248294,-0.2839257,-0.029336061,0.08172484,0.02828999
bri,-0.011942875,-0.055054367,0.084645376,0.033699982,0.120633855,0.037971806,-0.0999705,-0.037554838,0.059296295,-0.09767669,-0.0024521933,-0.051223196,0.13557756,-0.057028744,-0.02913731,0.1459978,0.086166404,-0.027327115,-0.06855219,-0.097505026,-0.06447159,-0.0377272,-0.11474075,0.082187995,-0.16785851,0.10457571,-0.08487193,0.030079663,0.06720932,0.024612313,0.11049989,0.003392525,0.17430234,-0.011161165,0.026558973,-0.05635306,0.02137804,0.08856781,-0.038942322,0.13070479,0.09128371,0.045686055,0.00883,-0.07755482,0.07867712,-0.14773627,0.07638475,-0.03265319,-0.081596404,-0.1945273,0.10319809,-0.018688634,0.14359695,0.062312208,0.17699218,-0.05912617,0.05175381,-0.059619606,-0.023915075,-0.08250661,-0.03380201,-0.027322978,-0.018169727,-0.05115822
bni,-0.063662805,-0.074659124,0.08235176,-0.009079333,0.1326436,0.05008756,-0.04604494,-0.089951426,0.0905675,-0.11883032,-0.060738847,-0.049971454,0.17798784,-0.0087996,-0.104781464,0.15459496,0.115348175,-0.02579453,-0.061050512,-0.10353941,-0.068835095,0.04611225,-0.083582826,0.04492213,-0.13322495,0.14714116,-0.06857371,-0.0039995755,0.017859647,0.019649373,0.12592754,-0.08223529,0.18655488,-0.115046784,0.0071850503,-0.123796895,0.08457603,0.108873606,-0.0096564945,0.0616242,0.07788356,0.044934265,0.0028629696,-0.09290843,0.06405214,-0.1682038,0.01604772,-0.01392157,-0.09654705,-0.24478024,0.08590622,-0.055259682,0.12059549,0.050583135,0.13819624,-0.06304457,0.011838614,-0.008247694,-0.093549564,-0.06318903,-0.10103157,-0.0041878694,-0.022452582,-0.008365615
btn,-0.09373541,-0.0045849606,-0.26377565,-0.08101026,0.12697935,-0.07057515,0.08113955,-0.12063284,0.06631759,-0.240585,-0.1888098,-0.020285182,-0.3055086,0.1076805,-0.10935593,-0.01330987,0.049176708,-0.032957472,0.05222489,-0.01615542,-0.082511745,0.33525693,0.032187458,-0.11339243,0.21196884,-0.13853362,0.17662981,0.13633202,-0.19197258,-0.0952301,-0.04976526,-0.07648198,-0.11291439,-0.17215694,-0.21452516,-0.10329138,0.01712732,0.005749746,0.025651518,-0.29244724,0.026948329,0.052611813,-0.103442654,0.0075948993,-0.054945573,0.028294662,-0.18207231,0.031911958,0.008536014,0.14798959,-0.1373078,-0.15581676,-0.10244444,0.028797958,-0.07215375,0.0007766697,-0.058399413,-0.116782434,0.018534135,0.022416588,0.060660265,-0.16483334,-0.046340827,0.08791486
asuransi astra,0.037987158,0.019269165,-0.19119667,-0.025310151,-0.09447639,-0.02975335,0.017233333,-0.12360574,0.056883015,-0.11250292,-0.11889927,-0.004868812,-0.1618801,-0.09860364,-0.06876773,0.08934129,0.06496468,0.011258765,0.044908017,0.020988472,0.03644392,0.04920707,0.28332663,-0.15593168,0.36462903,-0.09549394,0.11093933,0.10951227,-0.2464334,-0.16516155,-0.07665585,0.0019568,-0.07919261,0.046558715,-0.10945982,-0.055223018,0.08631185,0.076799974,0.13662282,-0.2555828,-0.055473424,0.025902778,-0.14967188,-0.053727433,-0.17319822,-0.087890804,-0.16490883,0.14002371,0.16969219,0.25801408,-0.44926587,-0.0063584456,-0.29016864,0.1988444,-0.22904685,0.0740716,-0.37413186,-0.111899,0.038399823,0.07565642,-0.076873116,-0.18374774,-0.08418508,0.052081417
prudential indonesia,-0.13415557,-0.010060076,-0.2874093,-0.11227985,0.197925,-0.08857587,0.11329976,-0.11362709,0.073875085,-0.28566256,-0.21753523,-0.025430037,-0.3428848,0.18104795,-0.12833843,-0.050484907,0.048451044,-0.038846664,0.05182366,-0.032164913,-0.119760156,0.438295,-0.043337815,-0.098466665,0.17173329,-0.14424953,0.20409387,0.14236808,-0.18184423,-0.07032545,-0.034943864,-0.11195825,-0.12786311,-0.25730914,-0.24952763,-0.13345551,0.004238315,-0.023347724,-0.010335695,-0.31258535,0.05788647,0.06649625,-0.08951355,0.030157533,-0.016524667,0.07729015,-0.18915507,-0.0068599507,-0.05217813,0.108653806,-0.039076157,-0.20983627,-0.044557482,-0.031518392,-0.017761856,-0.02013952,0.038929246,-0.11215462,0.0055290973,0.014944913,0.09466914,-0.15662837,-0.038877305,0.10632311
axa mandiri,-0.12505488,-0.004512618,-0.28552613,-0.12996751,0.1911147,-0.09586991,0.12995803,-0.1006014,0.08252938,-0.2885101,-0.22855817,-0.025957048,-0.32219505,0.18341115,-0.13335335,-0.05483909,0.05892749,-0.024367038,0.050473206,-0.037126184,-0.114484645,0.44855738,-0.022502085,-0.099799216,0.19322723,-0.13251248,0.21266805,0.13841972,-0.19603574,-0.06812283,-0.027919514,-0.12696761,-0.13437599,-0.270059,-0.2509921,-0.15800372,0.018507946,-0.033415955,-0.010384412,-0.32635581,0.06055174,0.076049656,-0.09358755,0.0312853,-0.016399223,0.09351498,-0.19162872,-0.011066862,-0.059168126,0.109661326,-0.05606968,-0.21394072,-0.055966884,-0.032756004,-0.015712615,-0.008409423,0.019239437,-0.10096073,-0.008639417,0.0344538,0.07529107,-0.15537032,-0.047223374,0.11399943
allianz,-0.119059816,-0.012414014,-0.27541476,-0.076747596,0.16290039,-0.07119778,0.07859607,-0.13029572,0.061192498,-0.25624144,-0.18992281,-0.021693207,-0.34081626,0.13547996,-0.11197971,-0.024846284,0.038576216,-0.04885707,0.053707458,-0.017874744,-0.10298091,0.36784232,-0.018777277,-0.1060866,0.17482662,-0.15239446,0.1800825,0.14278308,-0.17426768,-0.08717565,-0.050519377,-0.0766835,-0.11284986,-0.19488767,-0.22742093,-0.09215698,-0.0020020152,0.0031529816,0.0110338135,-0.28765357,0.03683413,0.04902265,-0.093787864,0.015983436,-0.03898324,0.033247113,-0.18265796,0.019862324,-0.009745045,0.13103385,-0.08031021,-0.17409557,-0.06787032,0.0052613984,-0.0517994,-0.018940657,0.0007745196,-0.1257723,0.026519246,0.00047490234,0.09341689,-0.1624519,-0.035036318,0.08824138
pegadaian,-0.15609239,-0.045081653,-0.26478264,-0.111171715,0.19441104,-0.09164938,0.07926366,-0.045128666,0.008407546,-0.25044283,-0.18395682,-0.05820221,-0.339083,0.15229282,-0.09483746,-0.08403543,0.042491637,-0.010952091,0.025630465,-0.028487932,-0.1227386,0.43441808,-0.09386258,-0.08683422,0.14327008,-0.15394531,0.17623937,0.12434773,-0.21470498,-0.04916576,-0.0397174,-0.06726152,-0.16129813,-0.13503948,-0.23721182,-0.05007935,-0.08390726,-0.06415132,-0.015846834,-0.2571803,0.09647774,0.046771675,-0.1210312,0.033414666,0.019449426,0.054422475,-0.13032739,-0.0480993,-0.041012943,0.11690037,-0.045487307,-0.20359501,-0.05628709,-0.056685604,-0.01689209,0.01696769,0.121910244,-0.16925062,0.020590123,-0.001507127,0.13229422,-0.19845343,0.0009883938,0.089070305
